solver_type L2R_L2LOSS_SVC_DUAL
nr_class 2
label 1 -1
nr_feature 5000
bias -1
w
0.6247061320885574 
-0.412774052969004 
0.4618359365639011 
-0.3656862757866584 
-1.980028172000714 
-1.165914262313149 
-0.6580196709054512 
7.212276225139521 
-0.5325410972281999 
-0.5776000450792416 
-1.055510930547177 
-0.3401044130031508 
-0.1259631066063514 
-0.02373962582572875 
-0.9832240691333468 
-1.100611878250356 
-0.142863154568811 
0.064469468915323 
5.534215057755655 
-1.32875812455609 
1.126531968314622 
0.5578585302257236 
-0.821419877952102 
-3.96956267538669 
0.01459775113167269 
-1.550921562708168 
-0.03392573401118744 
-0.1885479881096426 
-4.663920767838584 
-1.178872804041002 
-0.08347241679587707 
-0.9703571340602994 
-0.1662055137102561 
-0.1252838558628975 
0.1449987127907584 
1.004093475680084 
0.01504654377011616 
0.5722836409437955 
-0.7456823790297785 
-0.6353451561386321 
1.365979486804614 
-0.1291117465486844 
-0.1781600933888172 
0.4181845431600251 
-0.508318457922298 
0.8837994381695562 
0.3420444453337574 
-0.6972750338218983 
-1.41228335834729 
0.9351509707984202 
-0.9347633769705056 
6.596381197921238 
0.4879488140348982 
0.2460511206154229 
0.5222580422486837 
-0.322017210583639 
-1.418828110433575 
-1.254897597168896 
-0.7517326086204004 
-0.3285021668695689 
1.322155303827243 
0.6826507650274123 
-0.2231414510484122 
-0.1949567302740463 
-0.8866067114070544 
-0.7768481962992654 
-0.3054246934569596 
3.471965091744478 
-2.638142720769666 
-0.1391432245866685 
0.01014125300128119 
0.1010845213680676 
0.2691652977633301 
0.1338681962625926 
-1.656326185609639 
-0.2443411544299416 
-0.2918522193315698 
-0.501742321045356 
-0.1520154778740622 
-1.433976665595968 
-0.06943047402298794 
-0.5052655501697131 
-0.613526625955931 
3.414968609470294 
-0.8114832900279225 
-0.7607741429587932 
-0.1813905075504081 
-0.2053834877545065 
-0.1639822864624365 
0.0963569818005701 
1.118945152161965 
-1.951680101920278 
-0.03104210999193312 
-0.3870068973693683 
0.3236366391214854 
-1.585178881122207 
-0.5567649775535408 
0.1791433758486267 
-1.630374970554652 
-0.1481676287270605 
-0.5863513472226505 
-0.01632811132765929 
-1.089464768310499 
-1.535716043038341 
0.004904850923435615 
0.2802751145787235 
-1.484373140225795 
-0.2965429391375896 
-0.320613342436914 
0.0827514922139745 
-0.1060844815167762 
-1.477652984267339 
-0.3148958491862659 
-0.4634101873172719 
-0.1824882639022327 
-0.4955526551659584 
-0.1255430177829064 
0.4760010092420257 
0.2729724413831609 
-0.4876879917127099 
-0.2740562648061307 
-0.05680225362633284 
0.1684262499361741 
-0.3400738377655122 
0.0845635482301802 
-0.9670515229415497 
-1.184401030479729 
0.1930941646402902 
-2.077820632340724 
-0.1767605384721251 
0.2645032277804453 
-2.969470170596233 
-0.7606303643593232 
-0.3616127423293541 
-0.6953827336648741 
-0.1321988112374354 
1.235969394199248 
2.008517377952634 
-0.3421831570097733 
-0.3746667795450974 
0.6331865221891201 
-1.589981835288377 
-1.835185551161409 
-0.961168377283917 
-0.2210155397464963 
0.0625377549547661 
-0.2042919582650743 
-0.2432317875988302 
-0.2878635062781988 
-1.013009845224145 
-0.8330341475230089 
-0.7346194182081272 
-0.3371870357483349 
1.18349861136975 
-0.9753846131962471 
-0.8402528998198427 
-0.4708444363793105 
1.827353097983922 
-0.2015951921354451 
0.9081668420163604 
-0.2040065677582033 
-0.1116934810846949 
-0.7472694706743421 
-0.8041928089631519 
-1.269927575329383 
0.61210846683446 
-0.3103293817569884 
0.09672333692184824 
-0.4700356889352405 
-0.1675445014408975 
2.053654088318765 
-0.2992773329729602 
0.3728122664218274 
0.6679931125993889 
-1.026466431131729 
-0.4090833505220005 
0.6673958422786487 
0.08125327531830243 
0.8825915444421443 
-0.9254481764947016 
-0.4270065550388765 
1.484267585952622 
0.2013210513184653 
-0.4816713515901088 
-0.7640794533051065 
-0.330351099750904 
-0.5083234599451214 
-0.2358933804202626 
-4.248614874246589 
0.07223629145993359 
-0.1356870990672525 
2.681834767768467 
0.009286115894512215 
-0.2764987553213499 
-2.403221372595737 
-0.5553657063611829 
0.02515888655883892 
0.3990305563648013 
-0.2522168590014816 
-0.008270023305558776 
-0.3407996440862031 
-1.475593895253966 
-2.338563492346598 
-0.272114384510352 
-0.04687486756722237 
-0.2052471441343347 
-0.3166818266537678 
-0.5185046768320923 
-1.739956160803147 
-1.203976036860696 
-0.3682687646737134 
2.644428764161225 
0.452747379300623 
-0.8603324201622821 
-0.1575259742374333 
-0.1837769247752437 
1.709953135904698 
-0.3693829108719806 
0.7959050890402791 
-0.1197939425794078 
-1.203227348258903 
-0.1607617871656496 
0.03433599959200513 
0.6101152709401775 
0.1283696532982259 
0.3852474513505698 
0.6119376685073113 
-0.5365407470281851 
-0.2902339636570175 
-1.046065206743208 
-0.2275251235266503 
-0.06615060035813976 
-0.3231228625342417 
1.656283489105323 
-1.179926751150499 
-2.013891624386608 
-0.182249855399654 
0.8175920997428567 
0.5807660355332861 
-0.2279826373785127 
-0.7446561905774928 
-0.009509447035911407 
-0.7585147219453995 
-0.646474442162107 
-0.6167896994938051 
0.1534136528101253 
-0.8246302315665405 
-0.2981503680070137 
-0.1006384399505697 
-0.45135709684558 
0.5891903148920475 
-0.4845613058689873 
-1.43666426420362 
-0.08336995415566133 
0.01925633869672615 
0.6830550255096641 
-0.2045592240989702 
-0.3370931910902252 
-1.278652340430778 
-0.5096521789194742 
0.2150171921124987 
-0.0661000699270608 
-0.8396058643165182 
-0.2010171276151435 
-0.06213537581041825 
-0.4045629217102536 
0.5322435740094815 
0.1766430103794338 
0.1530450751029658 
-0.7761020157110783 
-0.9083669873037394 
0.3138587299720056 
-0.5152324054715302 
-0.0540283305309877 
-0.5182654137814205 
-0.6935465025122194 
0.5303519759356733 
0.006843250630254079 
-0.002539104115322871 
0.6029075266400578 
-0.3289753643639046 
-0.4001470426983972 
-1.125918392465107 
-0.7442199431303415 
-1.221070356613971 
0.1221750345944849 
-0.418487677811552 
0.4128808037808171 
-0.09789631446084553 
0.2014475245187947 
0.296115160482136 
-1.020254766937203 
1.117890233059281 
-0.02519876049573746 
1.465231911435973 
0.089931179090632 
-0.2037340759836217 
0.3468531027292984 
3.211070117825337 
-0.3126227105567113 
1.632321152935932 
-0.0739510531559532 
-1.169506887766252 
1.950394012739537 
0.6348292717060831 
-0.1080119065098808 
-0.3811732196426346 
-0.422882977868036 
-0.6557944056010387 
-1.391015964834168 
0.0004815505273210436 
0.03991273731370537 
2.029326126061014 
-0.7668198583291796 
-0.5715392859597402 
2.560765605118909 
-0.1758672001572394 
-0.7846808680620406 
0.005659924089642748 
-0.3739246732742871 
0.1975923780353601 
-0.7687652525701881 
-0.1842441182087203 
0.6691837693179215 
0.3823781200862844 
-0.3474661603460675 
0.009070463529371169 
1.939378011099315 
0.1994313856074908 
0.982818963669705 
0.2263520968551935 
-0.1558520925447275 
0.36440404199249 
-0.4362324963702282 
-0.1767891567892304 
-0.4472111361077988 
-0.071960598588273 
0.8841663614454561 
-1.106820811534392 
-0.1884428408554524 
-2.615203784936142 
-1.789599903315936 
0.001445735298572187 
-0.942744917598615 
-0.3862518557940816 
-0.1136528985321743 
-1.411644564252422 
-1.188568649454201 
0.1267326437636225 
-0.8784684379934548 
-0.6190905382152776 
1.049694837486609 
-0.140598488261141 
-0.4665281231275152 
-0.9212563514559068 
-0.5223873396239808 
-0.5621327893192123 
-0.05606166223879213 
-0.5265302526000482 
0.2052559656443136 
-0.4935469846365483 
-1.367998317605279 
0.5255197378248591 
2.135887843789489 
1.163953332753518 
-0.04598121180124004 
-0.2341862422220587 
-0.8888680161701813 
0.6860133947062383 
-0.408422239230591 
-0.8260614776016283 
0.1926199042570529 
0.03945055598546301 
-0.9867296974790893 
-1.472997350348978 
-0.1577589606512565 
0.1040373654884756 
0.4081777966021647 
0.6316812482964305 
1.166769986142835 
-0.2439727579897243 
0.1190410508985063 
-0.352675708804093 
-0.4661091456214612 
-0.05847209436180093 
0.08910043437935669 
-0.2417368036570492 
1.395796100189519 
-0.4796119757218798 
-0.3531624521236943 
-0.2184872107231692 
-1.301042606982605e-18 
-0.3712513982080226 
-0.5473476343803637 
0.4912012338096197 
-0.3893132969412693 
2.6910316623182 
-0.3524935951765654 
-1.38863657826468 
0.01925527090907794 
-0.1527181418264294 
0.6627026051735759 
-0.09188020606676457 
-0.5029311938062955 
-0.2366354840507049 
-0.4554714180817611 
-0.4145684863491443 
-0.01605587194992376 
0.09967542862633517 
0.01554759936334553 
1.265648179100092 
-0.3799030370342044 
2.329872792814007 
-0.1560056624997121 
-1.673794422638342 
0.8184411260412068 
-0.8618923760450824 
-0.1020359390113515 
0.1805803827459212 
-0.1381598044188043 
-0.1061882229219062 
-0.8656155289521501 
0.7055273113494924 
2.127641332453651 
-0.1610252392763144 
-0.4955347068589686 
-0.9720468553309738 
-0.1779985094832851 
0.7107286738626502 
0.7318081820939426 
0.0583915409763479 
-0.614540295707782 
-1.11845391358804 
0.2551003224973712 
-0.5412997800097494 
0.7165013771164783 
0.1896897578344032 
-0.6029793010126501 
-0.2768603195003276 
-2.28965182837001 
-0.06415795716997756 
1.833138253447947 
-0.2354244815293181 
-0.5540708040000997 
0.2843666255824451 
-0.2706871233665518 
-0.344430442866564 
-0.02742512765212743 
0.7677750513667599 
-0.6644317408941954 
0.2632869917385621 
-1.778570270686727 
-2.024267727012123 
-0.05283923825956203 
-0.5883063231006375 
0.2592937336275745 
-0.04776871261215901 
1.656834035390803 
0.2366338133070411 
-1.771518164647615 
0.06819172291465754 
-0.2719300316256429 
0.2308723570251306 
0.9870978501345546 
0.01961216481795095 
-1.269064519788756 
-0.1373627304786622 
0.1826917945044657 
0.1732789957166088 
-0.7216479138250291 
-0.5052130201768307 
3.605604733585884 
-0.6294979069885054 
-0.9292396577190151 
-2.412605201071948 
0.01686076941801207 
0.0718008104112999 
-0.2190379157916321 
-0.8690025491295713 
-0.09371704847675646 
-0.6866472042549251 
2.027766918171627 
0.009036904522977875 
-1.362727287983067 
-1.268949742640572 
0.4400973205802005 
2.711199836347666 
-0.6809488258897636 
-1.335488679190375 
-0.613397265297923 
0.3690956577091369 
-0.2049209303008097 
-0.9341797107280252 
-0.0995029695130441 
0.2761478245859374 
-0.5447651134890087 
0.7713880707303165 
-0.8535124126343551 
-0.4732719244133564 
-0.1752446503579216 
-0.2074905708630749 
1.32543069076302 
0.133084043048812 
1.256101252616832 
-0.8932510289605923 
0.3638071901287669 
-0.1502321575241273 
0.6861784761857783 
0.1401171170778913 
-1.208616364454549 
-0.06824894939393962 
1.149047732326166 
-1.507323923385062 
-0.604056662694166 
-0.02038289890312897 
-0.1455583432521885 
-1.337125893379358 
-0.7594175365706637 
0.581975063012473 
0.4905889045708341 
1.660005025444102 
-0.1924994087169579 
-0.4516663809346288 
-1.067511529056207 
-0.3772111845297287 
0.2662496539626733 
-0.9071487436189577 
-0.566975180947463 
-0.6929484203134062 
0.1662580436178699 
-0.1772468152593787 
1.030620128229952 
-0.4668949480939041 
-0.8546937863067361 
-0.331965399766021 
0.8103051514243663 
1.288309213808765 
0.2379536552021024 
-0.3256774548160511 
0.1616596888907419 
-0.4680507492992449 
0.3159912391140897 
-0.618577198114073 
-0.2958071074814394 
0.08761409062153255 
-0.05228096592711726 
-0.3566057523891482 
1.387433545315232 
-0.7125401131223307 
0.1968786380201032 
-0.6777970387763497 
-0.1782853734728401 
1.453089521284472 
-0.2041667259411624 
-0.2357662105552145 
-0.2133577138371589 
0.003754749866858422 
1.966121893192355 
-0.3216708753510458 
0.5721621909889155 
0.2999704393801355 
-0.5307049340725941 
0.9768260287036815 
0.2256683933480555 
-0.8957904312083191 
-0.6219424360335465 
-0.9168824445333329 
-0.510675706118531 
-0.5980085453604894 
-0.2246219627671849 
0.229438159359589 
2.420825539315953 
0.9847218950545987 
-0.9912820083417672 
0.1682909504377439 
2.381367134563915 
0.08350481460385212 
0.3713207473095355 
0.3553576873695639 
0.3672767001677916 
0.732287867022976 
-0.1305578720191961 
0.2125864841905388 
-0.7979577352605679 
0.6576194712127186 
0.1473873412242686 
-0.08019342355190374 
-0.131795828920365 
-0.1628788508266442 
-0.8611999693655421 
-0.2314844619110051 
0.4593214610567761 
0.1888236557388756 
0.2330121249120087 
0.2188523044827312 
-0.05677774347713352 
-1.041005393601418 
-0.3885151953374521 
-0.7471087775954417 
-0.2449608349284658 
-0.2066781582347132 
-0.1969041945815649 
-0.752316837811053 
0.6281626437517941 
0.9970646092116453 
0.2154916906833443 
0.6286947031289705 
-0.2550797391306392 
-0.4867790839064451 
-0.3567382175449176 
-0.6070812848087319 
-0.5234868937433146 
-0.528212095055475 
0.2650613388325199 
0.2979615318922776 
-0.3871986037951931 
-1.09567256375664 
-0.537140410406943 
-0.4023803967092624 
0.6898047358925398 
-0.38899604482581 
-0.4726077725162455 
-0.1798341824196175 
0.5472133902367573 
-0.6191102477171938 
0.173757147409243 
0.01666974930035238 
-0.4486733202748248 
1.584117986429843 
0.7261423185826118 
0.3096547758363906 
0.1537366201557913 
0.5658522516085274 
0.2931139569227052 
-0.3001675752383162 
-0.4389738490659346 
0.6398466854476834 
-0.06796905451937349 
-0.1698329599279629 
0.247417991775674 
0.2362390548998212 
-0.7106594816995142 
0.4288214574338257 
-0.3763734139511935 
0.5040922438284771 
-0.1891395395664651 
2.038277422730205 
-1.237376358781282 
2.252145836580631 
0.6670210194060473 
0.2526047253266549 
0.5424112635244763 
0.299110565661851 
-0.520048686730867 
1.184460814387126 
-0.527182292407355 
-0.4784525384654228 
0.1327614668397777 
0.01367265752975802 
-0.7426130443183908 
-0.3949271332960192 
-0.4885708812492482 
-0.9634078119912614 
-0.3333113839989083 
-0.2775339585786799 
-0.6434735625608298 
-0.7707963441812529 
-0.8005376623972691 
-0.1682649995150418 
-0.4271146290588787 
1.721080764245161 
0.05366591327462378 
-0.04029190249280876 
0.9201054426735747 
-0.3230580532351998 
-0.2235015414876717 
-1.170616825768522 
0.4077112329191194 
0.3479295885777949 
-0.04172022230728417 
-0.43122180000795 
-0.6153995220862145 
-0.4442089569213073 
0.3467868686251374 
-0.4149122883577596 
1.484719723259622 
-1.514796205945015 
-0.3003788526232824 
-0.6388638784302012 
0.8658610006050879 
-0.1929309055976981 
-0.1295332635484671 
-0.8385851108902668 
3.257959651332836 
0.453942493269366 
-0.8221008488250545 
-0.04919149838559401 
-0.08071593609717605 
-0.3995237968936401 
0.3751064426176754 
0.5533809202184543 
1.949620394359746 
0.3771859564874468 
2.981924937843732 
0.2730709225999711 
0.9123217586967265 
-0.3448192822586241 
-0.3734878052084555 
-0.3574311966033903 
0.4169064807932851 
-0.19650956297786 
-0.3249103486655539 
-0.1785879850341104 
1.664203472164629 
0.2503992580857179 
-0.07143398198350583 
0.3277932176633365 
-0.09129111962204967 
-0.7780660187593907 
-1.581823730598833 
-0.8498990653425939 
-1.496389164807378 
0.3361746382653893 
-0.5180915101676151 
-0.09415429423595283 
-1.428260301880442 
-0.1468814736481854 
0.9777943119178024 
0.8879586800042447 
1.969746560874007 
0.1695347668670921 
-1.634623351658498 
1.238795338027962 
-0.2689954043832356 
-0.5219396009120741 
-0.2772156010140264 
-0.6912915491156412 
2.483302270585068 
0.8660799840496961 
-0.7543348287585971 
0.683530782560326 
-0.1096849556681342 
-0.1823873581020457 
0.07491687639625014 
-2.400185758115839 
-1.225365190733122 
1.061987515264599 
-0.5981702691749751 
-0.2236852088184882 
0.1143560181319422 
0.7712110328118907 
-0.4289591574951363 
-0.2834426809319542 
0.1205751429886225 
-0.4986909117377181 
-1.147994959054989 
-0.07021709377328492 
0.1214276905757482 
-1.561909456865066 
0.3250828975113769 
-0.1494620018116066 
-1.020655348326003 
0.7568552153182451 
-0.5219371896558654 
-0.3541707822051521 
-0.5172512756415276 
-0.06519232020730964 
-0.2652524730115473 
1.256008950214473 
-0.2540817482167023 
0.6192243542366956 
0.04720938109719444 
-0.01021605385796923 
-0.3660816366222734 
-0.8547873851822524 
-0.7406513319402993 
-0.1564490318301064 
-0.3148363797440449 
-1.039876428516397 
0.61889818566942 
-0.5858246248366965 
0.6193580520097306 
1.734262297647545 
0.01413878453385445 
0.6115184012606187 
0.5481672442527739 
0.3870138122723786 
0.6662884364386285 
1.065338538626553 
2.307089161027575 
2.723840241611566 
-0.743054461923253 
2.524640501001601 
0.7563413564331604 
-0.3499260720684517 
1.027123545420863 
3.752885047871357 
-0.7108454747343077 
0.354492439025781 
0.6415934673744005 
-0.08145928276812882 
0.2960333649975195 
-0.351825253416642 
-1.37681955187633 
0.2818566419921477 
-1.1111672037158 
-0.3896865025177547 
1.4411441105491 
-2.258236025719926 
-0.2560647943933275 
0.2560007738641115 
0.157747880318993 
0.607466496894648 
0.2688989503335434 
-0.5877290481090183 
0.9782482062233981 
-0.1606698596323371 
-0.4528837588848357 
0.130226749512524 
-0.1959411457462211 
0.8792049406338084 
0.3687812325000013 
0.5825489445730775 
-0.4696743032568536 
-0.07094612764296621 
0.009807692936194342 
-0.1913522712201405 
-0.3673806999622481 
0.9379786394512345 
0.03552689104130522 
-0.2692590551420452 
0.0133678880021756 
-1.004714568709766 
0.1815059241055876 
0.4311296878855049 
0.1122066805034403 
-1.145876432544529 
-0.2330868596726685 
1.062798146593502 
2.265821541477239 
-0.1091251235433714 
-0.4977103779517491 
-1.171894285948011 
-0.5815511289662278 
-0.6000143475981931 
0.6386887565657039 
-0.08029934857442957 
1.603855848128509 
0.2138296904628255 
0.1803045671744644 
0.4342727772526475 
-1.681303764558656 
-0.5607006696862855 
0.1705840709120359 
-0.106860116489853 
1.125118358284165 
2.607823990172559 
0.445253061614579 
-0.4611271561236696 
-0.8711128382172411 
0.06314426423184685 
-0.4801632429766169 
-0.1943524103945299 
2.947642458011681 
0.5254634091596312 
0.5305052385648794 
-0.004414775666096575 
-0.6915121211612001 
-1.034392653454532 
0.5446441694251518 
4.347641925366783 
2.175016599389533 
-1.423074290703832 
-0.02752558027107345 
-0.5007482301215334 
0.350883296635505 
-0.4959627026330155 
-2.358639934496189 
0.784058694735984 
-0.2301389503497259 
2.303890331642372 
-0.5167273150523187 
-0.0563136860487118 
1.745099236003103 
-0.534802072325967 
-0.58867774922996 
-0.2104713436923919 
1.332788194369568 
-0.4916960319925517 
-0.2193707715978715 
0.07998387836316583 
-0.5155531476876484 
-0.7971884419150267 
-0.5308974156718548 
-0.1310213081615506 
-0.2439408124349228 
-0.2425308959192304 
-0.8964239814204175 
0.5339465676001048 
0.003693185850225372 
-0.5643362092432654 
0.6105420434049976 
-0.7183120395024285 
-0.5550483254422769 
-0.7343964932388463 
0.7757119388033685 
-0.4921524846971824 
1.558385892444095 
0.4494976799303393 
-0.7668857184445563 
-0.29258835866444 
-0.03125250669674171 
-1.055002413439119 
3.894970920794059 
1.090360472029225 
-0.272082235750704 
-0.2720250047546072 
-1.56768604615268 
1.73195148138493 
0.6191994358897795 
-0.7337061227846491 
-0.8801068235989521 
-0.3401154350876964 
0.1808667136036675 
-0.6858588677098814 
-0.4681589355571107 
0.02265682039525212 
-0.5844077411890057 
-1.788096269998544 
-1.750528023829122 
-0.4614023580951456 
-0.2382794234951588 
0.1789292923683434 
-0.7470746902573673 
-0.1865371869996156 
-0.3423767686321615 
0.5562593743956228 
-0.5923568505958219 
2.693708863305076 
-2.711511293354644 
1.049142746723746 
0.1607184590058849 
-0.2564358971181874 
0.3560741698409718 
-0.5838934532888291 
0.1758916408826079 
-0.1313479859668245 
-0.1615468825265761 
-0.8984473849998867 
0.5371314108277692 
0.08801324988722753 
1.043490242265038 
0.1592251935555105 
0.2282088365936018 
0.3230477637396493 
-0.6874237872434903 
-0.3149102917585014 
-0.6204290018512387 
0.03987167380739706 
-0.240153889753064 
0.1021579768513097 
-0.3625204846361956 
-0.4622312266752802 
-0.06837475267928403 
0.2590323972773433 
-0.1390369128623506 
-0.7257213457378678 
0.5983540392841642 
0.9129606884790755 
-0.3702606160596491 
-1.338266846187188 
0.06100980415602838 
0.484972526517386 
-0.6990592246523013 
-0.09598464825291017 
0.3930186999358182 
0.2136284682811166 
-1.11673991001025 
-0.4811228307392366 
-1.114509646289703 
-1.037548958431783 
0.09207787945935074 
-1.063687216520747 
-0.04890710820579027 
-0.2311451871598454 
-0.3192444727230287 
0.4700085797894876 
-0.08527710000727953 
0.5659230017153888 
0.6733962137361525 
-0.2007019494365866 
0.9948325163911895 
-0.0644894344093235 
-0.02034794801558901 
3.911246842337488 
0.108863172137728 
-0.6277561353386827 
0.6079355689407266 
0.03980797716429928 
0.02477650306916175 
0.8231323479052679 
-0.1973150501683255 
-0.3150196750687659 
0.411627108150629 
0.8754519349384051 
-0.1685572360836752 
-0.260079818755017 
0.2344422351815949 
3.280852517457427 
-0.3893252080793103 
1.03746332112971 
0.09820576631799915 
-0.09805647534467428 
-0.2942155979801485 
-0.4239217334352828 
-0.8226165214051815 
0.2475575141523169 
-0.2917290398738017 
0.5180530585547765 
-0.1218943970791287 
-0.4896255318467976 
-0.3236654382674328 
-0.2392307561838984 
-0.4426767844209804 
-0.1086821123034226 
0.2582955285129553 
-0.04392287690038049 
-0.4499916512383156 
-0.2666320407601739 
-0.03952455685431302 
-0.3233518282325676 
-0.02613817448467076 
0.445182588347495 
4.60755419179467 
-0.6642974603151902 
-1.126353830409086 
0.1969209288018201 
0.8314246571626799 
-0.09574835339258626 
-0.5489287864856351 
0.1624857291113136 
-0.4272682790709483 
3.034901118260705 
-0.3010412480923508 
-0.06177553175064111 
-1.56737664591281 
2.504447682899447 
-1.430851037989494 
0.9285243576915643 
-0.8071848445523193 
-0.4245650955667647 
0.08257994999271424 
-0.4163188714341244 
-0.3723067216131528 
-0.4867730375959978 
-0.2807258686546807 
-0.3864178653913098 
-0.8770349874961246 
0.9664263111415418 
0.5760629609625287 
-0.3471517364352916 
-0.08272356839695519 
-0.04450516162206195 
-0.1402306288520927 
-0.1839255468863438 
-0.00738769242272938 
0.02246982507456345 
-1.109013285885864 
-0.9001561516765318 
0.5007143554398383 
0.2059600874866156 
-0.09929010139390188 
-0.6561321805207081 
1.186072925241275 
-1.626976916244642 
-1.036455935016122 
-0.5274781264153797 
0.3025317229541222 
-0.4478481000143584 
-0.6746377740121539 
-0.2708603570200099 
-0.1212725101522471 
0.3835421453891187 
1.559904609662457 
0.2275422048470858 
-0.3614005587237291 
-0.7611414790021145 
2.086860754132203 
-0.8639686902849685 
-1.196518724691362 
0.09649269525728574 
2.571054064848692 
0.3722140487601113 
-0.4741720119318583 
-0.3625203208028661 
-0.2270537108914729 
0.002421638208666052 
1.723023735813587 
-0.4636329583119567 
-1.370554390105348 
-2.030302415496473 
-0.1288679182970493 
0.731067527275256 
-0.05517809400275382 
4.02822514992407 
0.6079560467315854 
-0.9570072455207067 
-1.006808458399324 
-0.6722164842320484 
-0.8499726612923805 
0.756433525111654 
0.4660878456546655 
0.7586740928272356 
-0.3217862816494707 
0.07619585479166897 
0.8644539944560503 
-2.075739773589867 
-0.275423418826943 
0.1747665299126516 
-0.6913984756641464 
-0.01243178930387179 
-0.1885500801148652 
-0.1031170534224704 
-0.1268989428216779 
-0.02398726907634329 
-0.3280283089415871 
0.7077619204907029 
-0.1984404284585102 
-0.8518030919167028 
0.1139884133674751 
-0.9198570937451801 
1.745179348913181 
0.7243428413803001 
-0.2882438062059994 
-0.3613713527244278 
-0.01828561697801055 
-1.070992641062491 
0.6491141142286998 
-0.3694139713321856 
-1.209795101816461 
0.5056675061390424 
-0.001983951268491811 
-0.298005979709388 
-0.9810264460121759 
-0.6905356529485176 
-0.687682378483929 
-0.4345808074468291 
-1.051305208842249 
-0.8728199466558182 
-0.9848837682428042 
-0.6397904626654212 
-0.5080424493212398 
0.2672982580545158 
-0.364126217432542 
0.7806723960784372 
-0.4558441482002767 
-1.50361538791128 
0.678898726941828 
0.09711952614676733 
-0.3464832761492493 
0.3832942091819165 
0.1925462978483427 
1.008180589948809 
-0.05015717053098966 
0.2836262806335035 
0.04336219061686977 
-0.1901282044169192 
-0.05434787241914935 
0.7916052172318904 
0.5164932252699636 
-0.6562654755099617 
0.4599553671392008 
-0.1864511736381831 
0.04740839173230896 
-0.8363415232095285 
0.1731850118973295 
-0.4283516356835915 
0.1351856985935566 
-1.815472522906095 
-0.2612312019845864 
0.8898393763523921 
0.4604609419492043 
-0.453180574966912 
0.5667341003358686 
-0.1712566877791742 
0.1827950738757284 
1.079824570690235 
-0.1344037061708224 
-0.9559331460439978 
-0.8540689479934643 
0.4585169774515782 
0.8525885116260808 
0.8819368594911942 
0.5195441196010393 
-0.6658877257528065 
0.05039854369225713 
0.4025669519901178 
0.2174797291215724 
-1.917391197742035 
-0.9341813770697929 
-1.853100550180183 
-0.5180082780585243 
-0.5931403152967708 
-0.8419405751204782 
-0.682900328646365 
-0.4128975316608121 
-0.3977758907064359 
-0.6475780074500035 
-0.6231603426307567 
-0.7822800848948234 
0.04720390285422332 
0.8177965678928988 
-0.547664012733001 
-1.137911550180739 
-0.3713644032100525 
-0.8050993894955029 
0 
-2.235197896105889 
-0.3811203604244501 
-0.1629357470201721 
-0.04564591052852663 
-0.8368748753695832 
-0.911096996425233 
2.567805703680934 
-0.5920660233534707 
0.577259311398909 
-1.068783288111151 
0.7605972458917167 
0.6242712493670675 
0.2301610376905733 
0.9663364971720951 
-0.1004222460217895 
-0.1354660141077265 
-0.5400816794978528 
-0.5322914957240917 
0.9098991149452217 
0.1077298694164498 
0.6930810061942027 
0.9275221125980423 
-0.4693441766607838 
-0.4579527703824944 
-0.135771784177152 
0.03501419976982639 
1.174024202818506 
-0.18143383665704 
-0.1567419745162473 
0.09680328673843254 
0.9672261713111372 
1.114248157980718 
2.087561358617422 
0.6687211177954062 
-1.138728925137096 
0.7088907175745816 
-0.3731682946236841 
-0.8339791234063128 
0.4130219874247484 
-0.3784493222872192 
-0.9049672468999772 
-0.1989247931615455 
0.2068235183698388 
-0.3798197914281525 
-0.650655603803857 
0.3203965252322216 
0.518278005186205 
-0.4615247114089341 
-0.5485231593074139 
-4.276850033091335 
-0.8475289313104168 
-0.323321147615037 
0.4415331768626143 
-0.1643948139121387 
-0.8637238643960645 
1.759359471932318 
3.326709106412991 
0.07342817841269725 
0.5371943630091767 
-0.6066743130987429 
-0.03162585607427185 
-0.9217185540788184 
1.090532099889379 
-0.001613476273855972 
-0.4417149587374243 
-0.2676410456241589 
2.846605278116232 
-0.2564664985071781 
1.160897186034841 
-0.2477382085808391 
-0.1145732387391202 
1.049636151305101 
-0.4315311382405576 
-0.5332369615643301 
-0.3307154072700662 
0.1972351233803543 
-0.05595734292815811 
2.0296909829742 
-0.6127924640194036 
-0.2485154822439285 
0.3005407237744029 
-0.04854105278892498 
0.01410996765232008 
-0.5257297967643769 
-1.224424604658414 
-0.1162991992228539 
2.503659043236487 
1.085100816375207 
0.4933552523173519 
-0.2162303347971028 
0.6148731654066172 
-0.6199395216670622 
-0.4120744750361297 
-0.4938698076578925 
-0.1947999709184306 
1.352199595212998 
-0.1345280027331783 
-0.3644151786502279 
-0.002425366840917927 
-1.475051794849788 
0.8983173696568499 
-0.2455467335292282 
-0.4635991496114883 
-0.8043354949687511 
-0.132055259641892 
-0.86836422890556 
0.06730965704874439 
-0.1322946357193822 
-0.08571924726114287 
-0.01566840389659834 
-0.7258804999244772 
0.1196358782326466 
0.184910500062083 
0.2291090809485999 
0.05530720169255267 
-0.2700749310108689 
2.193655109366684 
-0.2477245062417457 
0.1344784657070698 
-0.4419382405568031 
0.6723906083102762 
1.103782166909318 
-0.1093366475005609 
-0.8176132990298181 
-0.5417354477898583 
-0.2195128969107407 
-0.5612225130425189 
-0.3171485040850855 
-0.400617316777162 
-1.013776846217357 
0.387662792052017 
0.1758367679015886 
0.7459333281801397 
-0.8354492638469101 
0.7972752580668463 
-1.342193493787492 
-0.06925930461164255 
-0.9106527243324706 
-0.05173871247123486 
1.214237745794319 
-0.7064652779964159 
0.4420732779225738 
0.02252156503142519 
0.3279341545838921 
-1.357954100961443 
2.072243401641988 
0.157692384236566 
0.1936387865042191 
-0.8340142292105149 
-0.7185399645923208 
-0.2989249106310631 
-0.5837978469807268 
-0.9772659975734599 
-1.54934845210738 
-0.6962983512834122 
-0.6602815668791141 
0.2751355912873307 
-0.5327507056789217 
1.117604782894111 
1.049614224605179 
-1.359350504143517 
0.2004305230522902 
0.3734664308876619 
-0.262752469415668 
-1.044338993365576 
-0.03826947072904794 
0.2773327501424642 
-0.8939336783692273 
-0.1036815913000568 
1.661859309994076 
-0.6446472917559753 
-0.4201473693120842 
-0.8186179722164411 
0.05817520740973668 
-0.3976075448838636 
2.422245401021379 
-0.7752920244499428 
0.2232640138649166 
-0.1232525398578988 
-1.029787095489192 
0.1126866446174859 
-0.3485669389186458 
-0.03912169731713245 
0.5377076759398325 
-1.088573042247368 
0.5662548578972489 
-0.2667107479373812 
0.2772383594154132 
-0.8048539846898831 
-0.4100252540783905 
-0.3095765591541218 
-0.2450862494256969 
-0.140224772478627 
0.3915441191293447 
-0.5351830281279176 
0.2095817211014053 
0.2106390942545276 
-0.2602525969181872 
-0.6609117856198915 
-0.2356875599345171 
-0.8223290553516175 
-0.2815562875867264 
-0.7255131561485053 
-0.1521002908255843 
-0.519579603582263 
-0.2706229452748547 
0.6024042600908366 
0.804942936051995 
0.614729915954294 
0.2087303312214186 
-0.1236542934707443 
-0.3509514611365995 
1.016539588774313 
0.107471473530249 
-0.5515565111684178 
-0.9304248876499706 
-0.4588086627191849 
-0.1344067342680221 
1.589016822583249 
0.8575034151253189 
-0.1204492126973751 
-0.2807658236538259 
-0.2365349014161125 
1.381643911156614 
0.5781416263948153 
0.5104579166233961 
-0.4377864182229992 
-0.5186575116350691 
-0.4767977709846101 
-0.365057782511639 
-0.4348679352046749 
0.6291135357706551 
-0.5882179538567333 
-0.317240933272516 
0.5194897362154651 
-0.04573926361434641 
-0.3429542855549507 
-1.352426312945688 
-0.2036441436437739 
-0.162699625955272 
0.07528918987867174 
-0.2252548952185467 
-0.03171811957522391 
1.019789783610671 
0.374428538072626 
-0.3482418957540631 
-0.5425511799825731 
0.657483168186256 
0.1877783431557312 
-1.380218332416042 
0.1675748696423863 
1.332292416569849 
0.8457229117527136 
1.2737237000678 
0.04126843689146106 
0.4757811049928301 
-0.7416437190925921 
-0.7431488937805411 
-0.1001110474586943 
-0.139572362230711 
-1.723640812538553 
0.4655651013617502 
-0.7363651993720109 
-0.4281533630452622 
0.659652719762449 
-0.1834701836454617 
-0.7361323301276983 
-1.043265299964886 
0.5681185087390674 
-0.4594987022865362 
-0.6235285340923736 
-0.1338112144357619 
0.5055251336649691 
-0.4717625577947664 
-0.5993118718226028 
1.630140034886418 
-0.1474776588676913 
-0.2745969920480172 
0.09278363181221878 
1.649162119599173 
0.7348390275298298 
1.104503349803268 
-0.2851878804098647 
1.099969941003617 
0.3667511244993522 
-0.8511104650705591 
-0.02589587038560581 
0.1331393340414787 
-0.9695258621514775 
1.458389263085185 
0.2388528720951592 
-0.9849948219603729 
-0.4148842296946596 
-0.2647710887070165 
-0.04431228839477353 
0.3159350630188232 
0.8355272846526034 
-0.3410612343829719 
0.2432789902849649 
-1.138274168480884 
-0.8675616303998911 
0.1672815027130925 
1.233244587861083 
0.3381139334335351 
0.2922331232662282 
0.3282025883709006 
-0.2095375190588711 
0.1928005439755116 
0.7849737510195904 
0.2887769313600406 
-0.4180288612120893 
-1.161096812092663 
0.4421760260827617 
-2.207763279098598 
-0.1711126456228427 
-0.1654072736472876 
0.8308664108806799 
-0.2436413211737407 
-0.1123280366848012 
-0.6355323891568335 
-0.4319740956871569 
-0.5913828177881172 
-0.1800504496613027 
0.002531271312011518 
-0.175079895296424 
0.01811494912849785 
0.1245808513813231 
0.04176800371492841 
1.689741899668827 
0.1679136316240426 
-0.02440536494874471 
-0.4996208656806702 
-0.1479686377513001 
-0.901176939840924 
-0.8569563007369647 
-0.700771080439755 
0.2953799859769409 
0.764273761782532 
0.5478825803192588 
-0.0004728030561875507 
0.3564663282594544 
-0.03580343561471629 
-0.1845458401225952 
1.101771190744424 
-0.1028063516596732 
0.7524957701720263 
-0.7297469119642704 
-0.9326725381250806 
-0.4421624034886861 
-0.8128637208170948 
0.192060238798013 
-2.188052922892076 
-0.4747748901912814 
0.07784181043158732 
-0.5010952400628382 
0.8751144954572456 
-0.02107203474100759 
-0.6325569690978413 
0.5766339086548806 
-0.8091079534958705 
1.145689398018163 
-0.4114905653649767 
0.2068895009616294 
-0.4655981128758674 
-0.005287415072442471 
-0.2735279137481902 
0.086509550527425 
-0.1323116462673198 
-0.6185167468910271 
0.1962429686592189 
-0.1807367007599189 
-0.390695654707452 
-0.4061594013030637 
-0.09156033642237354 
-0.4005883713018913 
0.3000120130678078 
0.8936820838495372 
-0.3354234611782361 
-0.03082980791308811 
-0.01073289813234377 
-0.009272621420598695 
1.312479985610529 
0.0531366165310052 
-0.18456912811999 
-0.548766619332513 
0.2008051032015724 
1.754320243116667 
-0.5611896640746521 
-0.01863815267792268 
0.5273322937177164 
-0.01715653836515193 
0.4078196091670188 
-1.17754618994493 
-0.5447140102836197 
0.647499562740361 
-0.1294544180517287 
-1.818170325212005 
-0.1857228066293433 
0.7653146336279181 
-0.6348458594835418 
0.945110816481216 
0.3500721570768958 
-1.946163979833881 
-0.4505903795929659 
-0.2736513476038168 
3.218457827462888 
-0.4011225614248333 
1.339842160865133 
-0.2446270955094706 
0.2126343030688756 
0.8830492023547584 
-0.460725059851174 
-0.3889117639683308 
0.8467768282312457 
-1.050346097833206 
-1.093331173707997 
0.6972659689276327 
1.264477341668602 
-0.6299029316258784 
-0.5161414612172709 
0.380913935621701 
-1.012276824468422 
0.788139290505678 
-0.01262154661551835 
-0.05442839269343884 
1.185319534859709 
-0.2256123250819544 
-0.5822491335585498 
0.2069891546011506 
-1.052399343000383 
0.1156559187536327 
-0.7152177397582535 
1.257347272055964 
0.4821470660276072 
-0.5779793797076146 
1.582938876898637 
-0.8263096199583849 
0.4264345333050143 
-2.512721263612175 
-0.1870189941956902 
-0.3005864841699434 
-0.5461762992498237 
-0.08549021098749604 
0.6279630686561063 
-0.2497142904449157 
0.2551524526148998 
0.02699427809664727 
0.1532592315946594 
0.2931939522034153 
-0.08208018120962821 
1.40119151426403 
-0.1865080529703229 
-0.5475707265825946 
1.085782287224027 
-0.09458104861630871 
0.4069420608189355 
-0.4589854288756197 
-0.4919709303645601 
-0.1835320118873828 
0.4118938515984536 
1.563036935836231 
0.08940019971396189 
0.05118099063546402 
-0.02401459972599472 
0.2589742229275016 
-0.5136862467038182 
1.125918054656514 
-1.998885796799129 
-0.5807217625141856 
-0.08195015800165134 
-1.342872877186028 
-0.04324997775695893 
0.114962370094618 
-0.08857050431435823 
0.2522562315275724 
-0.5275399219469381 
0.09601480661562489 
0.3613566963444648 
-0.7780959407723281 
0.9594257410017493 
1.759586924440352 
0.1230017837914633 
0.4950846723435174 
-0.1842291996347231 
1.625861164169412 
0.2803022807268468 
-0.2396545385822686 
-0.2388173506129004 
-3.519971056096515 
-0.1581155068871157 
-1.08573072714808 
-0.02932942900981618 
0.2311200402786717 
-0.05670333373813601 
1.275682714254117 
-0.7718657535817918 
0.4775029448184357 
-0.4159588360814543 
1.776627775158097 
0.4245702665102442 
-0.4229102281182258 
-0.6485173126191949 
1.450591887767666 
0.3271391421186217 
0.3606510834208363 
0.03158123009240289 
-0.2795352898553443 
-0.2759343148450992 
0.5096124078163461 
-0.5270088200676255 
2.008758189259345 
1.215392430043262 
-0.3678726814367069 
-1.720665704668178 
0.7049888097945183 
-1.061440705856646 
0.4715813217049127 
0.1271908640186305 
-0.6356747085426229 
0.6767430940408292 
-0.08982959241777182 
0.7245993502287315 
0.2354215424472907 
0.5984210517777507 
-1.046613071195259 
-0.4065396059853486 
-0.4608729227327011 
0.8729838325669529 
0.1788493914314607 
-0.4116390820019576 
-0.5245967967053922 
1.052119428498139 
0.6727630168576163 
-0.4438495559390141 
0.07084027789841355 
0.1625014610113962 
0.02324393821558252 
-0.004488065342549061 
-0.2445331434180992 
-0.6173118778663829 
0.4748381285003391 
-0.3244023006750359 
0.01178695328642097 
0.2912313721729862 
1.378313724320433 
-0.8918715615349864 
1.473844629142277 
0.3487481860124825 
-0.2178888610052657 
-0.4734977755950606 
2.014535988759439 
-1.152665516153374 
0.6478735110843624 
-0.5744801833144996 
1.429018617504503 
-0.8074483112936161 
-0.8373754240361557 
-0.1180457428551439 
-0.3390072540521297 
0.5515638940635238 
-0.1515084352650872 
0.2354304296039639 
0.2911296562173542 
-1.580980827909136 
-0.5229891577771395 
-0.2919060300492502 
0.2352381915179483 
0.0413759539454081 
0.3918278163277155 
-0.4589741087403698 
-0.1235514920276336 
0.6177538446187916 
-0.3504006687931384 
-1.556566533545923 
1.65371137887709 
0.00156737379573853 
1.733939825352777 
-0.5886171661289774 
-0.3973344286709837 
-0.05045706359697658 
-0.5175140514705188 
-0.07517324580098188 
0.1796568113795478 
1.098252789543465 
-0.6003077138107445 
-0.9930968796026189 
-0.2405872491253638 
1.61518158839969 
-0.5217941107091799 
1.290819987546791 
0.03572278202661454 
-0.6156023121118372 
0.006476610920317812 
-0.924702380559719 
0.5725764605492055 
0.009834289008063567 
-1.417887033528656 
-1.518706102046102 
0.2009394246964034 
-0.08658874459639458 
1.701288792517521 
-0.5279558802013461 
-0.2361498595521075 
0.5113414125550176 
1.175937473292733 
0.3947204914339189 
0.5672408991979772 
1.037915589022721 
0.3757591625731413 
-0.8631492364112918 
0.09161069123122852 
-0.07508909975740957 
0.01655281440645646 
0.1662961048467653 
0.3775909872526101 
-0.3062286410450188 
0.5258031427421188 
0.01927413877020146 
-0.8634202973141056 
-0.4197003805571983 
1.583419902863707 
-0.6694503987956942 
-0.5014667168293753 
0.1052967663860691 
0.6740878123350162 
0.1861724418259932 
-0.03662120918045812 
0.2281919946426575 
0.4403832154156668 
-0.7750461023477038 
1.420944418640775 
-0.2683326865631342 
-0.007016341112566883 
0.3296009919039055 
-0.4379624709941297 
-1.105151268438784 
0.6177997273459481 
0.3382861508047174 
0.6808060740668292 
0.02246488785633732 
0.1568756322371219 
3.101813825761309 
-0.2911910488678209 
0.4196349412703407 
-0.1079697653054289 
0.1419599804198723 
-0.01379656101019618 
-0.02093584109549535 
0.06190823455464054 
-0.3498964256631344 
0.3414713289791733 
-0.4288575334448838 
-0.6483381405069795 
0.1199285076993425 
-0.1971056383456004 
0.8670334201097216 
1.503719353921978 
1.160305178288122 
-0.6783566083396437 
0.6163978128497236 
-0.3004855635503541 
-1.061639536371343 
-1.243499131778101 
0.04425901616430018 
-0.599428322644295 
-0.3075612868788945 
1.05500020311969 
0.1931228206027772 
0.8497656495435779 
-0.1708244712328992 
1.223671212235283 
0.4624520763614708 
-0.1382795681226775 
-0.1060097623939285 
0.6081163398208206 
-0.06327000752800406 
0.183998405047458 
-0.4131736270128371 
-0.06801378248319537 
-0.4552163232880936 
-0.04455113788942455 
0.0475026416901291 
1.642437647200644 
-0.3843162817898247 
-0.3040659068228223 
-0.5568881932560276 
1.360794634909854 
0.2454759526888814 
-0.8235348217003126 
0.2095299759641156 
0.07543396576440842 
0.9806292501978003 
-1.237543541653765 
-0.7031294833220182 
-0.7559087279046504 
-0.1976725568435199 
-0.3374444498678349 
0.191645790365781 
-0.3662227791849749 
0.3854358954505523 
-1.116368240365103 
-0.7668809304739409 
-0.01974227648751852 
-0.08707402906963846 
-1.610338234781119 
0.2388975804371593 
-0.4090872287843413 
0.04327227385970422 
-0.1578240990846438 
1.097389223635646 
0.7231465289156532 
-0.4938379387070242 
-0.08917678240871831 
-0.5687928029438581 
-0.000113246956083841 
1.381366281885723 
-0.9294370666244861 
0.2185785271786099 
-0.2057644649185949 
-0.9475484252230165 
-0.4970595856592969 
-0.7906478314613973 
-0.5367011222159888 
0.03118507469656916 
-0.07006186378472404 
0.6320650609747446 
1.106859266056028 
-0.1720761471622646 
-0.6238323094706091 
-0.5400525636346302 
-0.3489083021060717 
-0.2414382160482529 
-0.4754580450522208 
-0.3715388527038531 
1.933576867800578 
0.1454369796525366 
1.558576731294892 
2.01477921919969 
-0.1048135681799917 
-0.001357498960646621 
-0.9502096591897563 
-0.4964031961722709 
-0.1788480833504766 
-0.1568717019052939 
0.08053051608741409 
0.2798651335877135 
0.2359669764863316 
0.03051777040573922 
-0.6262042842916337 
-0.08200927521201902 
-0.2817366025492436 
1.745617122188179 
-1.033383322418907 
-0.6633088979330714 
0.63840400528839 
-1.91077410963659 
-0.08082960949097356 
0.04985798003990016 
-0.1091502994946876 
-0.5692633310319664 
1.001204816418265 
-0.5370425364479262 
0.3064665283162875 
0.819058292345886 
-0.4379578218790129 
0.234439597596507 
1.76125393117472 
-1.145292969238348 
-3.709985900919064 
1.244591834116373 
0.4761930661384465 
-0.457538997381273 
0.7771724677927703 
0.1548314298770653 
0.8503942133858418 
-0.2571748449072092 
-0.4191372199269261 
-0.1819563962796383 
-0.4908402339090184 
-0.8154183536033544 
-0.308884861996693 
2.314718597068649 
0.1340941293377541 
0.7803733371897636 
0.7588333558110094 
-1.008231967862832 
-0.808369683121984 
0.05292255156026032 
-0.1387645884526708 
-0.375996491365909 
0.740035034859626 
-0.07917204720482561 
-0.3003263783307579 
-0.7142247565785451 
-0.1023783687188035 
-0.1478754632783873 
1.700365320337544 
-0.1027880336969442 
-0.5479701686880651 
-0.6088651576357699 
-1.307954966719388 
-0.8096291585946614 
0.7175136022549526 
-0.3714009072328871 
-0.156827698199068 
0.6462829912816128 
-0.1567554791391781 
0.6445698075375229 
1.208125884450702 
-1.118084821781754 
-0.5293855671679411 
-0.101570681835784 
0.3378958708119944 
1.005426611922098 
0.09747279538001359 
1.144936415288404 
0.2244901211903678 
2.215567361422351 
-0.05278560641784914 
-0.2415219682101067 
1.720232221805832 
0.5474297206133192 
1.027858696864916 
-0.00384635590639803 
1.604562351727391 
-0.1575901249226716 
0.2097609813212677 
0.4134407579108924 
-0.8506777527353305 
-1.091065765694292 
-0.7663958611623981 
-1.247029482689276 
-0.1336219191445423 
-0.1750144113583402 
0.08456281275742647 
-2.739135782279234 
-0.389289168879362 
-0.4006203787073005 
0.5714587498623321 
-0.4470569654652337 
-0.3266844490032529 
-0.1854124724921776 
0.02649318285309371 
0.2186477147209864 
0.8756285183462552 
0.2466166982631609 
0.7714643305967376 
-0.3616381300693639 
0.2379561319035485 
1.144663548202618 
-0.5376234190414932 
0.275097347887386 
0.1384856340625621 
1.112560020707992 
0.1343670730138445 
-0.02089789708304024 
1.490595328732164 
-0.1538426640357003 
1.529811449416256 
0.2950324734910584 
0.7400442009131747 
-1.277806472683709 
-0.4803930258815802 
0.2524636371458615 
-0.5989941315753035 
-0.4753229254177669 
-0.5809111735583349 
-0.09720114865640785 
-0.02234501059972929 
-0.03338835084226118 
0.1052249408377352 
-0.04550430818781694 
0.6347315700920053 
-0.387011157597142 
0.16447296337238 
-0.8560896210022425 
-0.6746683323210509 
1.586511469982683 
-0.6109991487598931 
0.6121556137626202 
-2.298832134077114 
0.6342701847632333 
-1.035768433857355 
-0.1866303236053611 
1.035995118129651 
0.06781532478048315 
1.834168874867104 
-0.3971494073995446 
0.005722906815632478 
-0.2497312504816206 
1.05812035135559 
-0.04657998297272359 
-0.7878119023319278 
-0.441192660335483 
-0.7422579440111607 
-1.289913847151081 
0.6048260744017978 
-0.8228683831939642 
0.2530776698378092 
-0.03225117784295368 
-0.2448961611370475 
0.3758116168758279 
-0.492662434199425 
-0.4214088274879867 
0.1740145564476224 
0.8939127911845427 
0.005497328963412123 
-0.773169285702287 
0.6033136652093891 
-0.3727640926033015 
-0.3938852900997923 
-1.542343801257215 
0.5349407270898658 
0.07115505167634058 
-0.8489000823202957 
-0.4427831522445955 
0.6924861750458498 
2.001531349088927 
-0.1073838435291681 
0.744419450641483 
-0.1194550328415302 
-0.6673520114933311 
-0.9105434785637843 
1.715629704647782 
-0.6070300184481868 
0.6260777236235785 
1.13831279739547 
-1.837900200001907 
-0.2343252939212357 
0.2998967857337131 
2.574292798957659 
-0.957782180319639 
-0.2067226162929878 
0.6494886958226465 
0.776282470923792 
-1.295506624141665 
-0.02607606039346026 
-0.4614798626645749 
0.166723024927596 
0.9094706991275688 
-0.7394823367096333 
1.022194946116122 
1.4220299083702 
0.6346444817340673 
0.313780335210431 
0.1492269184918329 
0.5514239670137939 
1.052715479092348 
0.9174090615033897 
-0.7367403651718064 
0.2301524191445192 
-0.7336279950724935 
-0.5469086313513141 
-0.03929410322083676 
-0.3308681154390409 
0.3561807144870623 
-0.01726263441976957 
-0.08066437797836121 
-0.2276159881387829 
-0.3156006827390989 
0.05938945424207783 
-0.007857647522261924 
-0.7295920175860949 
0.73215378210566 
0.4826598792240718 
-0.02627049765490816 
-1.515183557908856 
-0.3024993112005253 
-0.2223916939007148 
0.1937409209038035 
0.430020237676397 
-0.8758706404008388 
1.30931409026608 
-0.2521937569603474 
0.3711674892464026 
0.2077714608890669 
0.1320775247869514 
-0.4556916054705024 
2.947134900330591 
-0.3187089913246861 
-1.528975484985234 
0.4470931757647874 
-0.5347383177088669 
-0.1654438324861795 
-0.2320022987106296 
-0.579948080162565 
-0.1046601434953115 
-0.1107090874370313 
0.7640208126166658 
1.646461324001711 
-0.2521157491005039 
-0.9302061842200132 
-0.8948040960110656 
1.880107993207276 
-0.3100515039837126 
-1.02576472491714 
-0.05939776108258945 
-0.4968958969389307 
-0.8235474971117799 
0.7967994856184611 
-0.245416808917314 
-1.241986693475382 
-0.4783488077497307 
-0.5986146364973716 
-0.7676305730913782 
-0.1183142223938747 
0.02241118222122675 
1.609487101311444 
1.081675847968042 
-0.378022843629969 
0.4246588345819629 
0.08794588205518344 
-0.4301165157067952 
0.24535988869731 
-0.09926503011746264 
0.367258952086582 
-0.08444212388288726 
-0.188791466761857 
0.3915512076678621 
-0.3789048217467841 
-0.1261392552378069 
1.146220789822566 
2.391432365833119 
-0.255269220938845 
0.1602973175859651 
-1.172401980609759 
-0.5001863506701827 
0.9978364236002174 
2.737075737335716 
-0.3993574770274668 
0.1349895823271869 
-0.793663698413571 
-0.02598234232650479 
0.4754654267168854 
-0.327699306752905 
1.665907820462108 
0.9108713782840554 
0.5744726925650331 
-0.2033920157761483 
0.403074201956271 
-0.1375902573373464 
-0.4504857688012657 
1.084240260345576 
0.2233097490131544 
0.3517575142880913 
1.560490378974825 
0.1049638769405093 
-0.3339245566912412 
0.1060869870656598 
-0.4646431909044436 
-0.7839117169496133 
-0.02426210643253398 
0.2827467333143274 
0.2157021238392055 
0.06959659830401013 
0.1854045998930491 
-0.7719856412363644 
0.7487327379514567 
-0.8276244147314774 
-0.2233402576705669 
-0.4111006650875352 
-0.7622892711382079 
0.3070400707982847 
-0.2139788869142149 
0.9155406180678334 
-0.2546932007283177 
-0.9005345694035829 
0.2661176930219091 
0.2322046421526209 
1.338729212253435 
-0.3469861339323254 
-0.1202927784465029 
1.054042426822488 
0.7775266853587541 
-0.2811661813722979 
-0.08792840392811219 
-0.5008425237359659 
1.229279764336498 
-0.2983789157156873 
0.4281137437392155 
1.966716135605495 
0.9518656285841948 
0.9350519839518331 
-0.3450857733442499 
-0.2588243037233143 
-1.441833389287974 
0.9253899658933482 
-0.003212164423414356 
-0.8283767177493558 
0.683591441725215 
-0.2728548801639837 
3.167043548976315 
2.590687867719687 
-0.5905149243943126 
0.7842333524773308 
0.08541832633703331 
-0.6591871345489588 
1.034475415296357 
-0.4456593949118333 
0.1691959404698157 
0.5169427349971581 
0.3228864732195258 
-0.4511889534911941 
0.9676638860922328 
-0.2235444063904361 
-0.1939192769428204 
0.7759242253249949 
0.7945261800794025 
0.5132016920417292 
-1.020108873694882 
0.1286624795165235 
0.294271514705843 
-0.5611762077501621 
0.1090001040556421 
-0.192638385659103 
-0.49747334124658 
-0.4778926210059242 
0.1773180425059993 
-0.237044975689978 
0.8624244279391238 
0.6183263136417855 
-0.01684033307002373 
-0.5409291245243839 
0.8505640020511568 
1.012328241671592 
0.6399286388933317 
0.1457264950067639 
1.211776915464344 
0.5317835524841876 
0.1804013680117552 
0.4572798202288197 
0.117781445206096 
-0.01354725132974459 
-0.02896870981251613 
-0.06884412886992074 
-0.1936965296692978 
-0.7993538468971828 
1.799877651743307 
0.006633509258580564 
-0.5138241105055616 
1.549074440070693 
-0.6957533394355695 
-0.8084983668096675 
-1.449172377871426 
1.475414860962094 
0.2069340882546523 
-0.9761220213443459 
0.8323643999884611 
0.3927287217964874 
0.02962290307240739 
0.5241654566093329 
-0.3497727491137327 
0.03130958071569467 
1.704962152015806 
-0.5514752954590161 
0.6658215461871131 
-0.944378679582252 
-0.6374483137535808 
1.006851755080196 
-1.064160443281088 
-0.7473966765953975 
0.2319698673316417 
0.1077706506583551 
-0.4357700199332044 
0.002441984810328652 
-0.1939775239870387 
-0.3481452083643125 
1.756447603262584 
-0.6204336120676347 
-0.5735726070538498 
-0.156346474080775 
-0.2973543132084697 
-0.4574515366518711 
-0.472729139272372 
0.02475278502412877 
-0.2064696626307452 
0.3891582554743632 
-0.5856420165002667 
0.929160824368629 
-0.9010405179136773 
1.233120508552375 
1.531175970760748 
0.09840116777820296 
-1.711407344568169 
0.0226382205747232 
-0.2587172168917872 
-0.9606028173170391 
0.3958250897524061 
-0.4567893496109445 
-0.4846232737928767 
0.2828703666224114 
0.3084005675674515 
-0.9310984405353214 
-0.3571073613372065 
1.35551607853165 
0.7478275816693947 
-0.8076018795848867 
-0.2695483970173961 
-0.0203331785657553 
-0.222163092649552 
-0.07339071019275736 
-0.3159041207148479 
-0.06641950125352011 
-0.316258143481521 
-0.3815474541923317 
0.3882776147030691 
0.4302771249632618 
-0.5465929057788501 
-1.253728226316251 
1.192792651435236 
-0.1148434262685024 
-0.6411352096487043 
0.9925509036132678 
0.2345079319303267 
0.01876264210057609 
-0.3966299432724311 
2.487914314444392 
-0.1502192888785124 
-0.3712533780050055 
0.8372408957946653 
-1.190155092548238 
-0.5735667155481803 
0.4126578336181168 
-0.6272307604958433 
0.03255140498458167 
0.382576140582263 
0.05843720381763021 
-0.0006546232807112853 
0.5101590808762122 
-0.4234497050424289 
-0.4297793563843164 
-0.2979824639369974 
1.466712564877656 
-0.6213829001965986 
-1.268927076248261 
0.8776305204472296 
-0.1759903120047626 
-0.3477586732454764 
0.72767382411461 
0.01469934485951325 
-0.3831428804509627 
-1.65268207965388 
-0.2251545677415492 
0.4805068191319806 
0.1022830974706254 
0.05063208699274224 
1.021482557522614 
0.5796761663217591 
-0.6720427135093319 
-0.1208064751852449 
0.8747988225113705 
2.732590289390211 
0.1527535315327035 
-0.6829609176705567 
0.3539020188502222 
0.04460844870556224 
-1.034133771785344 
-0.1954758577435307 
-1.905516996993175 
0.1986077200418506 
0.230067893660604 
-0.7952333531710962 
-0.0726359167432985 
1.108303801651501 
0.08187396923555113 
-0.09757838136142323 
-0.5035248170218704 
-0.3079835824783282 
-0.4378767088288626 
0.3365154070854378 
-1.099756734631673 
-0.4592073002791905 
0.3600420157458002 
-0.1243106316347186 
0.620036386638716 
1.868961075830168 
2.551691984166345 
2.282098801003946 
-0.3540677935583208 
0.0995030542219681 
0.6191416196758873 
-0.5007787152283818 
1.301604667100899 
-0.5993123252156359 
-0.09117848831498182 
0.7997236600440311 
-1.299062295009567 
0.2033704431703993 
0.4480633015546611 
2.017976823513181 
2.644750367077154 
-0.3319779395745659 
-0.3185311759927481 
0.4849918584889457 
-1.227343176870168 
0.02317951270430128 
-0.3669775123413734 
2.260621394191536 
-0.5015133422650635 
0.1745135747688143 
-0.746664924308142 
0.2451032599713924 
0.2046808435302538 
-0.1917859677757985 
-0.3831120675658073 
0.9719990471083777 
-0.8136614540246734 
0.6006300142808468 
0.5039971167763793 
-0.596807854168668 
-0.283993498659024 
-0.5483921737622053 
0.3105173240663324 
-0.6911357118591848 
0.8309412861410315 
0.3883074558685027 
-0.9803720564120404 
-0.7646913202980806 
0.03736595798368447 
-0.9108111118408567 
-0.2430582553225362 
-0.4859170773713333 
0.9644551979413132 
0.214361621455748 
0.07799360368130855 
1.201973228546117 
1.174884895903268 
0.1316176696759737 
1.1261453181135 
-1.075123957779617 
0.1421800109284797 
0.8523479432044359 
1.369831888411703 
-0.02330426971597348 
0.203168567180014 
1.389741825981133 
0.3864743766608113 
1.160520630988553 
2.532646429688161 
0.02827444340590873 
0.9678421359653965 
-0.3037229573850144 
-0.610093930596861 
-0.4430566116073111 
-0.02350171928118356 
-0.03913262282991389 
0.4574640845054936 
0.3589128282133298 
0.4008753265987936 
-0.118629829049462 
-0.2925719385509034 
1.084732747190186 
-0.1288558551148161 
-0.4113906642405715 
-0.6738575285571248 
-0.2356318661412118 
-0.3117787119085281 
-0.00155178655737242 
-1.139084940815652 
0.9695430415610775 
0.06339670902708779 
0.3931866970156177 
-0.6001660867321544 
-0.3372002593217913 
0.0202029372582744 
-0.2552767439846345 
0.3069807414820583 
-0.05424158009546488 
-0.2249008608894535 
-0.1389305131586062 
-0.2704659939703561 
1.159646506598392 
0.2085548561768008 
-0.1256150185882044 
0.07846125420709721 
-0.5264561004521261 
-0.3780217517587524 
0.765820986547286 
0.09018082904912959 
0.06827827488350766 
-0.1787253097588549 
1.242670328561033 
-0.07899283453129975 
-0.3056288882264365 
-0.09802531962193253 
-0.1475428999873371 
-1.32582664071406 
-0.2957413288927654 
0.5510289269233272 
-0.4820941257027203 
0.3230807922454433 
-1.284724777563003 
1.25067244241811 
-0.171684574303314 
-0.06356143004096343 
-1.163555384736824 
0.7131999587488167 
-0.5125271817216752 
0.02536601790393977 
1.23703211702195 
-0.05628858698902957 
-0.06148637045231595 
0.4358762029793692 
-0.04015488740330418 
1.08135952987565 
-0.1220089707870146 
-0.1493436194914328 
2.777178183630348 
0.007376817460978354 
-0.6545583151484103 
0.3057750828787987 
1.437823227959616 
-0.01281101078990211 
-0.3562783121651124 
0.7729873939290323 
-0.6113339383782393 
-0.5051763840268875 
0.05999058382912129 
-0.316394416426674 
-0.9461283434823673 
0.7346943699627823 
0.3501190153892316 
1.450795881796417 
0.1335274396158317 
-0.2566610318212807 
0.1448143884937646 
-0.7205058050785259 
0.3524066662570218 
-0.4878200818630807 
-0.9206504141215383 
-0.8072670118209651 
-0.5939793327844287 
-1.079115491319005 
-0.1255589232780804 
-0.3720618356872604 
-0.05269967178209073 
1.318337481220027 
-0.6990676535149276 
-0.313555878288247 
2.064146269696923 
-0.2270024408278689 
-0.8497054169587853 
0.1192100757435023 
0.6506180976326307 
-0.4514802190857753 
0.02426250537162133 
-0.3544003563319616 
-0.3476646970688886 
0.01399203296150444 
0.04044275361381906 
-0.5500434689395606 
-0.08350933076506985 
-0.5574982885590135 
0.6644363256961496 
0.2157445935325135 
-1.033448403362218 
-1.891096101720287 
-0.1125730105380934 
-0.5608172138918894 
-0.07401009698581523 
-0.07397335360716287 
-0.1441728321089161 
-0.2222910918074664 
-0.09565507834804284 
0.8118989003529513 
0.2192085222141945 
0.7457718584282191 
0.03425443863025811 
0.4721360168620605 
0.504559933535724 
0.1696684137067981 
0.3846001834679497 
0.63709983907686 
0.3863400996809006 
-0.3221304138104943 
-0.8650540176478656 
0.2469201327021051 
0.4678347738017101 
-0.3600203086395527 
0.1975223372005246 
0.3823694029887973 
-0.005420492168487801 
0.1823530160996863 
0.8156438689755974 
-0.1662333976217844 
1.22741114634782 
0.05364624061113037 
1.294569930920651 
-0.06290568275524779 
1.284944806273702 
-0.1508734178910844 
-0.04505014655550521 
0.3918179613905054 
-0.2537853722626632 
-0.7976492796990782 
-0.2826400925498536 
-0.3041548037020277 
-0.2739514806493035 
0.8642641722764979 
-0.1436807660415686 
-0.3767046778762915 
0.2318460806039857 
-0.07994835988251146 
-0.08994286094501054 
0.604322834757178 
-0.7137094290685788 
0.6691625773358012 
-0.9404928748281494 
-0.5499108947964281 
-0.02800146980551464 
-0.4120559641339011 
0.4123820667804204 
0.3696794913458317 
-0.7576494271622224 
-0.9263077072201131 
-0.2628379757776233 
0.9188372263782366 
-0.1495263460498901 
-0.2848889778705938 
-0.596979058636546 
0.8778953570569835 
0.9869047840045303 
-0.07432955197715045 
-1.19486741139882 
0.01342753849044579 
-0.576283605427183 
-0.4851703821906073 
-0.8938507443744973 
-1.326904176549896 
-1.094653907841649 
-1.89744515607591 
0.1494149096439905 
-0.218088147362191 
0.1807660567502107 
1.092950767896404 
-0.9145877397249074 
-0.3300395873732295 
0.9323257141586508 
0.4091111975090631 
0.4408970441746599 
-1.214810826207978 
-0.1228551469676546 
-0.815944795859829 
-2.551459396428297 
0.282653722440411 
0.01316570111023509 
0.7429800432577499 
1.197638643854418 
-0.1449365544356902 
0.8774537379881657 
0.7671221219718212 
1.240988960926648 
0.3495826508949498 
0.1890126771307711 
0.5403839509929702 
-0.2668479389735988 
-1.423553230868258 
0.02625761358358779 
0.09666545624252543 
1.611652091518517 
0.5926748128028226 
-0.1560683601922005 
0.8237675269139636 
0.3111011593709913 
1.077973406159247 
1.280105638081742 
-0.5728730702642784 
0.6982592893858071 
-0.1942726078527067 
0.0101534863237854 
-0.6487749425028467 
-0.912142871358065 
0.2041729499459732 
0.08968859723233165 
-0.199313871787702 
-0.2074842658175257 
-0.04817998828360771 
0.4866243767237778 
0.01062089160108576 
-0.4148865142793305 
-0.5585732109111295 
-0.1993352624423158 
-0.09728093416370691 
0.2736540499271646 
-0.4906431520431901 
-0.02584751773094925 
0.6280765280341463 
-1.319677590414735 
0.05314341720945849 
0.6850881098162016 
-0.3765497295870382 
0.2339995361703205 
0.8501847060175124 
1.113364914810611 
-0.8047187233464472 
-0.2474575313801906 
-0.5485150217895636 
2.375088824409302 
0.5804929435525051 
-0.2942247773880807 
-0.494331202225521 
-1.010679239916867 
-0.1284525403265377 
-0.3944286212137376 
-0.6723597208381131 
-0.6408871450276513 
-0.2033879162114675 
-0.4977601726541476 
-0.3058189907370421 
1.22740969467119 
-0.8236600315252103 
-0.8841333017571016 
-0.3972334320093517 
2.916365315560419 
1.239168502300696 
1.184646707102707 
-1.015113128479273 
-0.5176094566287286 
-0.2708025057541448 
0.7656106978267383 
0.2744783280026574 
0.777291425182398 
1.440992853796522 
0.8477069345241779 
0.4418647027240988 
-0.170044126516469 
0.1909007763370144 
-0.6704545237263958 
0.2970469012905109 
0.5467789911627765 
0.4009839152726365 
-0.2200663907202326 
-0.5980219436328202 
0.05779865639922881 
0.2195607816203185 
-0.1074372750858118 
0.1272478461009696 
0.8077684152219113 
-0.2663575364267009 
-0.9404699376476052 
-0.1527195505155939 
-0.5729127713312511 
0.1543330572875226 
-0.08701952889019236 
0.2591680516517543 
-0.2829586085840581 
-0.2410404270372275 
-0.9270414491227982 
-0.08506648361256028 
-0.603155367184372 
0.1125222744465527 
0.4768748836812341 
0.6810796544458768 
0.8675782074507622 
0.1948489502236478 
1.354197077291786 
1.632461809243662 
-0.2099350132306629 
0.6761472147322191 
-0.5165924830363445 
0.1759090961276249 
2.444515753596364 
0.704282352785159 
0.2665877184548029 
-0.4490005394241202 
0.4912360382383864 
-0.6147780928658277 
0.2170196442594627 
1.171107310942575 
-0.2580897786336908 
-0.4701461390051625 
-0.4595851062136664 
0.07885531483909659 
0.2340807935909621 
0.342119200328576 
-0.8959292532419812 
-0.8171959342185825 
-0.08757089724888681 
-0.5407653337524573 
-0.2001011145830763 
0.3129342116541927 
-1.117491081788809 
0.6297410841317631 
0.7925556967402746 
-0.661744383975939 
-0.04762977494607919 
-0.2476811101371761 
-0.120100938295557 
1.072734580517254 
0.3775655725948159 
-0.8858071722315296 
0.1288782974216185 
2.616851568124267 
0.01426995078976924 
-0.1687489121712763 
0.4055966034173691 
0.7625569078229353 
-0.8670430779252267 
0.3140787021417308 
-1.13798498085044 
0.9596291537803486 
0.1698925280238203 
1.212892923326798 
-0.1321572440723201 
0.03656233775262336 
0.7129160536090681 
0.6341865825462738 
0.2307647952798301 
0.1286710975816398 
0.2705301956015132 
0.6349691467167102 
-0.5789046250611485 
-0.4318738752618594 
-0.2764290142170651 
0.3493756092338482 
-0.6754707608233771 
-0.1516098867967015 
-0.1758499324873274 
-0.2206577171372159 
-0.70427303896825 
2.026744839276394 
0.7593820172775799 
-0.07948586725434836 
0.05046473892655372 
0.7802276678681375 
0.2434306124591904 
-0.4939994707534909 
-0.5431143750498285 
0.3655548300768895 
-0.4742095158132553 
0.3387085189775298 
-0.8322386256173074 
0.5293036804930356 
0.337689508995259 
-0.1023813827248436 
0.5460450348177436 
-0.1441949035065495 
0.4405925953784622 
-0.7389792007849939 
-0.3747106581244558 
0.1645815318904214 
0.465260421726975 
0.07104235108877957 
0.08610292353923828 
0.2670183846473655 
-0.05481823990836778 
0.1943054602214901 
-0.1123561692191948 
0.283794493961445 
-1.076040274921549 
-0.09150158164366171 
-0.9899531605517229 
2.273045546357241 
-0.08688024831096952 
-0.02878284776789817 
0.1790446419553733 
-0.2679949552910448 
-0.6156928324226515 
-1.633738600600261 
-0.1411689647299891 
0.9379220599330265 
-0.008459422340741195 
-0.2901389481264977 
-0.1924932561961539 
0.1742207380106827 
-0.09258459745249466 
-0.2125438975478991 
-0.1110663393873795 
-0.1207159668617198 
0.3915018510423287 
-0.3299158619068872 
0 
0.01581393387779229 
-0.2221797535614088 
0.574675226981968 
-0.5210769904348947 
-1.063233790727096 
-0.2557933721051147 
-0.09900061269483683 
0.7696612825351363 
-0.4208937690652907 
0.7570864083292367 
-0.3244390928405207 
0.2545052495387339 
-0.2660124302813389 
-0.2525905975759475 
0.3553573942019971 
-1.747618746421734 
-0.3512321556527284 
-0.6167405162117745 
0.4826043999094145 
-0.4147224104970507 
-0.02785638145152386 
-0.286291677933027 
0.05677528831636118 
1.082143132343505 
1.181091274300422 
0.1281341261057348 
1.504232005002592 
-0.2982514990677607 
-0.2491724506920144 
-0.4714042378064349 
0.3286479543236431 
-0.3232935338310738 
0.008959888127262353 
1.420773814788763 
0.3753953084204251 
-0.1583686408094615 
0.264667490748802 
0.03713982835022309 
-0.01915302140381971 
-0.4053728315235302 
-1.178147036626681 
-1.290715595647146 
0.3704523978851451 
1.428670562931071 
0.6410477401496933 
0.5384049020060167 
-0.4439497555821859 
0.1620089988511726 
0.737760488905563 
-0.3831261191587159 
-0.4029730779218658 
1.217643603024713 
-0.9544679187151905 
1.087424365124728 
-0.7350366925458999 
0.4972244701104165 
0.7511746010728443 
2.908741170082693 
-0.4971163823529024 
0.00350789349526456 
-0.01441186549964113 
0.6985058647807393 
-0.07637460689586378 
-0.2984829937790726 
0.114911324754983 
-0.07634833616100588 
0.8340363088213786 
-0.2746323521020694 
0.2677325173904365 
-0.6587774142686074 
1.291319378958416 
-0.5421525262698822 
-0.5958465599157968 
-0.348178052502109 
-0.08346791960444588 
-0.07686747254046289 
-0.3635232046120488 
0.3043225853755771 
-0.2902708542437568 
-0.03774544797518919 
1.375755181142228 
-0.04510044352576234 
0.6247266901749358 
-0.29088772181148 
0.9660890719478786 
-0.8688397888148555 
0.2431671569688157 
-0.1033241205577996 
0.4740304882536449 
-0.7592925084699821 
0.1442787685056269 
0.7707566219662411 
-0.2769009315304464 
-0.4923618493141426 
0.1736985034745643 
0.625141328887131 
1.54299296645287 
2.042787635755392 
0.09183092797169903 
0 
-1.056589006063827 
-0.6017223352137427 
0.1581757269148391 
-0.6953400120293125 
-2.548045435767705 
-0.4321615047755619 
1.164612944039323 
0.03643435671612809 
-0.5452106225469915 
-0.01614972309033455 
-0.8278525778835896 
0.2933560307130264 
-0.9308946465771547 
0.4598565102093981 
0.2298775820991583 
0.251672033786976 
-0.3442877661895723 
0.6270443499496346 
1.046406991645043 
-0.8504908677803524 
-0.3081915533768631 
-0.203836424971216 
0.8069195738722362 
-0.66506660505908 
0.4159867553381971 
-0.2393629627898808 
0.404994890158366 
0.2190260260416493 
-0.7744710395567377 
-0.003765212002641529 
-0.7508115814854245 
-0.101210061977803 
-0.2022345101000153 
-0.2398232559797985 
0.4336114572147377 
0.458829907170886 
0.6581007400724527 
0.03566774006661663 
-0.8434617008318323 
-0.3761223132212645 
0.5602737649395343 
0.2755312708529173 
0.7792131553645699 
-0.1346678305777952 
0.4354536441461661 
0.06689029075870837 
-0.07508550441318082 
-0.5396342411863122 
-0.4359588917022822 
-0.1999615859213672 
-0.1186688814196867 
-0.488213553036723 
-0.16034659336844 
-0.048502827120667 
-0.3136673171741045 
-0.5379217448082605 
-2.122418482862133 
0.756463268627202 
-0.2420137611337074 
0.2215029734278389 
0.4968662652628599 
-0.9869961929444407 
0.2141888929674896 
-0.03659101656548632 
-0.3737321285224507 
-0.234422267941409 
-0.07118696677746533 
-0.5466114140345272 
1.364844575621263 
-0.3124357501695888 
-0.3159263565501694 
0.06561429407653063 
-0.313312582357794 
0.07655483236954048 
0.5086601429493853 
0.00547435739345201 
0.5820430659775921 
0.508163102651947 
0.1057109403800322 
-0.01081567910150612 
-0.03588629186073886 
0.2124456659673605 
0.5368680721227846 
-0.6832249294702725 
1.076789971542786 
0.2198847994729338 
-0.1041650941840706 
3.252606517456513e-19 
0.3290206717411571 
0.04287916537461196 
0.1290054538082843 
-0.02971266201113538 
1.071995166004834 
0.2380225109633335 
-0.4366466536113069 
0.3191428645111274 
-0.3463366933215604 
-0.005797475477507283 
-0.0314124536361418 
1.22758696881078 
-0.2673359720670005 
0 
-0.01813971060470856 
0.5469273118540855 
2.221930034363015 
0.3640342376937316 
0.2641336992310052 
0.9536866943849577 
-0.1410771005482141 
0.2667958615240215 
-0.342808308206876 
1.484615832614945 
-0.07047156544244312 
1.116820212953874 
-0.1427621652597122 
0.7695848057940091 
0.3970687957658998 
0.208198632073593 
-0.3075168781348831 
-0.7117609223685344 
0.121042709085803 
-0.03548283853258709 
-1.466751092689514 
0.1115333252425362 
1.138291786960796 
0.4384298845310178 
-0.37969692878023 
-2.016655728837323 
-0.3065760866923687 
-0.04092974646290869 
-0.07327295757171158 
-0.216782449265333 
-0.2646082834762566 
2.573473432509549 
-0.1247173707139023 
0.6290612542976504 
-0.3601479808340889 
0.2360534226698925 
0.3218201802828241 
-0.5411398197931472 
1.423083417811143 
0.1345845945184011 
0.4726803475769468 
0.6423475267416012 
1.286848543300921 
0.6963889220000118 
0.2532176453291051 
-0.7756156430623001 
0.6218754049036607 
-0.4963253509976092 
-0.3895970222516192 
-0.6449679466343089 
-0.1005445428818533 
-0.2940383972166661 
-0.02198960743463145 
0.6371492853955905 
-0.4634214113593931 
-0.3664505924812163 
0.2670149739156934 
0.9871733456305832 
-0.599046291560875 
-1.134032672003752 
0.6209963763844472 
-0.2421911210716151 
-0.5636927390276938 
0.1384048181110981 
-0.4492016183506122 
1.821061918994599 
-0.5542280596214798 
-0.7933935794142473 
0.2229888284249907 
-0.9939221585472571 
-0.238393379989674 
0.2721199384428191 
-0.4198219110143905 
0 
-0.1438869861605581 
-0.3817981383452163 
0.596698418784292 
-0.5297919660877648 
0.9741388527673899 
0.04601307515492525 
-0.1417252764922196 
0.6638580739126401 
-0.2002555175201353 
-0.5481969785787392 
-0.04770532605988929 
-0.7214749707492142 
0.1597185226153304 
0.7733396018526643 
0.06241271226015235 
-0.6292001393069253 
-0.7653988089757429 
0.1100385998840244 
0.2353733140148456 
-0.6846522361283166 
0.3920945181868646 
1.039342230908437 
0.06905176242173532 
-0.01005898619767136 
1.265831857170651 
0.5065719860629141 
0.4847753782793748 
-0.2914756220597151 
0.02431474938090376 
1.324713619430105 
1.533196209118525 
1.591941807063847 
0.7909078273592751 
-0.1399753398064851 
0.6634116949704266 
-0.1155784335508584 
-0.2026980222334041 
0.3207596929896989 
0.07850127069771252 
-0.4373727692592585 
-0.9199992811261488 
0.4189774023047587 
0.2308951232603429 
-0.3607185515529555 
-0.480623324991752 
-0.1565643705611414 
-0.5102166201445657 
0.0401114956668801 
-0.2011159386937862 
-0.515076440077587 
-0.4174338298737252 
-0.7458776972488016 
-0.107403656177105 
-0.2426014923371963 
0.2506717887390777 
0.8757591704663266 
0.1349364630188646 
-0.1340002606387302 
0.231109559588063 
-0.7783387867013569 
0.2284524205838831 
1.320522658012759 
-0.2994760806516247 
0.01917296424426474 
-0.03191498391646289 
-0.4139187124201036 
-2.125656959445446 
-1.291591274131981 
0.06098695120215085 
0.4539107637657428 
0.5033069988861139 
0.9387318713609079 
0.1916164532470204 
1.315662571924489 
0.2748857883085749 
-0.1066657175348629 
0.7587362764332242 
-0.06038385213446975 
0.5918916499182654 
0.9975304567269676 
-0.4993517318304487 
-0.2906216749585983 
-0.07951243306389635 
-0.2227627922330215 
1.120584512229366 
0.3749065084444615 
0.8002003090458704 
-0.3017402125336063 
0.7893068073424478 
-0.217610052823494 
-0.591336092206058 
0.913962849839558 
0.1789153801617827 
0.3210641467714922 
-0.03414003467348805 
1.145517048827962 
1.079359178811199 
-0.2037517833369573 
0.4901947466244226 
0.1414344467759662 
1.395576053476737 
0.6893390746067547 
-0.2810603916425558 
-0.1570225605275784 
-0.2402369188502433 
-0.5821869986202355 
1.950401421131067 
-0.3746384206205645 
1.395753783317567 
0.131154473753048 
-0.423943173512127 
-0.5110459517798502 
-0.2479005138608053 
0.9277381432246252 
1.300102374616078 
0.416006095161073 
-0.4080581858027741 
0.5118077910133464 
0.2909699346300977 
-0.5363816173395326 
-0.07516892580278214 
-0.2374908080005062 
-0.4577118828586486 
-0.3091803587843493 
-0.04180671022308714 
0.5104670952462969 
0.7379024369816702 
-0.1186601118096105 
0.3664146025449069 
-1.93024202151593 
-0.1091046023019891 
-0.1185583649027357 
-0.5783338549282617 
0.04605799653649136 
-0.09946047343871121 
0.143921099275874 
-0.5146125671540085 
0.2446943683980689 
-0.3340255408087199 
-0.6268474446969658 
-0.2098175648057558 
0.09249117440751717 
-0.4896863304689289 
-2.078548195936696 
1.267894653902473 
-0.6981540917607965 
-0.9806387790047657 
-0.1930220724507485 
1.131308700590141 
-1.00032905539418 
-0.3645996631430972 
1.106769604835049 
-0.05192497651683856 
0.06046426650639881 
0.04676402356586343 
0.2585407736821599 
-0.3775298298889849 
-0.6571511439820737 
1.263738572728816 
-0.04901596085988338 
0.6697640923596442 
-0.4641675393218936 
0.373037003846141 
-0.6319116230584189 
0.5532813153230365 
0.07024835577416877 
0.1123343972839711 
0.1229397478016776 
-0.1753792165030007 
0.3202311206177349 
-0.742256026104184 
-0.1204763782632695 
-0.9181839438909161 
-0.2907243345012155 
-0.2194056256545376 
-0.6034527473521856 
-0.1365900596647802 
-0.1721043437287944 
-0.5060403583468274 
0.1903830733768805 
0.006330602080277377 
0.4335398432221322 
-0.8712661191942687 
0.5170385082502844 
-0.7310693016610197 
0.04090437766658813 
-0.366047581772175 
-0.4389572457210799 
-0.1495774803034267 
0.2333764469798168 
0.3117299997565437 
-0.7593364498452441 
-0.3235552490338227 
-0.3318878030701478 
-0.2981392965900977 
-1.119152169201568 
-0.2901468882312486 
-0.0105156729762607 
-0.1246817320065986 
0.05632856347490058 
0.5012652673559403 
-0.6398488342049041 
-0.06709778007093327 
-0.5421041397254694 
0.6708210660892369 
0.2734847080855511 
0.4254602294680778 
0.1843574527801759 
0.04402761153277845 
0.1940490345246354 
-0.6643491816755537 
0.172669979770561 
0.4754334501988732 
-0.004174421069271885 
-0.1772504153284124 
1.276815872476629 
-0.5319401015676221 
-0.5074532195856758 
-0.672248898014155 
1.127020692833215 
-1.870688160129321 
-1.223100472703487 
-0.4564931482573276 
-0.3552341149156883 
0.07903452287411451 
0.8047746856134254 
0.3440884029361376 
0.7008074492249912 
0 
0.8379867796126403 
2.092377915353639 
-0.3886888513351725 
-0.3092708781800126 
1.508651501549922 
-0.3397056681873214 
-0.7896180564782592 
-1.208209843412993 
-1.030624886507 
0.9661657146602511 
-0.3063077712632069 
0.1245963009690303 
-0.6867360321717708 
-0.5550299752867246 
1.686933781887663 
-0.599858234362679 
0.1352941596357299 
-0.1650648019408913 
1.283381757751281 
-0.4278724653632957 
0.5814191564332098 
0.5996442500373047 
-0.5533982551253201 
0.8665247697974964 
0.5040940932375297 
0.3670942365246202 
-0.6413550811195561 
-0.08489882495971193 
0.8015304551865444 
-0.01498223667352364 
0.401136494394548 
-0.2663286256214563 
1.920162282447388 
-0.3567912749486095 
0.330422404488152 
0.2094409409151896 
0.4413879487887776 
0.9240732740398618 
1.040468180713168 
-0.0007177602329756502 
0.4670428084395637 
0.1173319589139808 
-0.1183288648780564 
-0.6586716426017077 
-0.3345948303210434 
-0.2735700755624697 
0.1703856968619147 
-0.3537591518686442 
1.332549112206168 
0.2940958324455865 
-1.280615145572805 
-0.1242438825988994 
2.560342947595616 
-0.880353113662156 
-1.085459445771583 
-0.1803710726739955 
0.06251050272583922 
-0.7342955689960299 
0.3336796045606135 
-0.07796755172364141 
0.1386916137173934 
-0.7769852409130288 
1.125204844454604 
-0.3495328348393404 
0.306574061992118 
-0.173738980073439 
-0.4131845612763856 
-0.3137161436437411 
0.2618906110760839 
-0.3560388699698955 
-0.2307793615412956 
1.403262935295162 
-0.2105506265348616 
-0.1151259345078572 
-0.1354944742064444 
1.384002157447804 
-0.06475941576585678 
0.009309863148093074 
-0.01925901719485036 
-0.4222750605741976 
0.3873508872799359 
-0.09615549239793952 
-0.1628725121973658 
-0.0723499289012407 
-0.1237459335353446 
-1.601263095950421 
-0.3788353838363921 
0.1807078492709192 
-0.68725708611124 
-0.2257247386225121 
0.06430163694247386 
-0.1190648081239634 
0.3189651669802905 
1.544247774794627 
-0.06363787512147662 
-0.5633163336707154 
0.3341215133146195 
-0.7254905958289086 
-0.2262529632710277 
-0.05577643898630947 
0.5098726770268235 
1.475548230392855 
-0.1939643001544961 
0.1008447328171378 
-0.3952674016970277 
-1.341827742087107 
-0.006380800630671406 
0.7570859873943734 
0.1688267405588605 
-0.1432200205310465 
0.004896191585814436 
1.211923374796755 
-1.60467872704767 
1.483088434688176 
-0.1083211701702507 
-0.5675090075533177 
0.1406149775459471 
-0.05295978545023501 
-0.6095828058134555 
-0.3688601726497832 
0.3355627544840942 
0.7643623895259708 
-0.6943162099290406 
-0.1479774238969273 
-0.009310348558787828 
0.03669180423242308 
-0.7627139361789437 
-0.07452021980665544 
-0.4032778417091715 
-0.5774517980347396 
-1.256792629422954 
0.04409836600209636 
0.009666166520275618 
0.1397206713855736 
0.6711177186140972 
1.247123193358332 
-0.535166574438635 
0 
0.003564250631487638 
-0.01343589757852916 
-0.7740154058551441 
-0.9107352106214042 
0.5315979638373545 
0.707217685681651 
0.8964086825334695 
-0.7906358663816775 
1.489543966088702 
-1.019940505421101 
-0.1105110249839768 
-0.3419509180262905 
-0.4136900727036409 
-0.6677916689422342 
0.1763677502020682 
-0.1742641256045688 
0.05104424859384907 
-0.8470177109477907 
1.300210887936547 
0.5694873235177025 
-0.1301990716179241 
-0.05160995444500559 
-0.2049406120992412 
0.3334885438175667 
0.8938266555433718 
-0.1841633709710456 
1.650448808023715 
-0.06806496445374963 
0.4400096390382309 
-0.09215758877503813 
0.515338587634712 
-0.9262677341733259 
-0.08476641904387375 
-0.3061308677500437 
0.9682648923634412 
0.8019734134861987 
-0.009796910302626546 
1.738220153200011 
-0.3184824697761882 
-0.1133642791225699 
-0.2345152461410905 
0.2700461750092452 
-0.1198190171662476 
0.1135159247385005 
-0.454716434872677 
1.491660370476275 
-0.5447425245429401 
0.2928483515787265 
0.1420267009896704 
1.291977628512328 
-0.2668625215524076 
-0.761404775604635 
-0.3085916934715462 
-0.4298219943329714 
-0.5624428475147875 
-0.32132430719954 
0.1476630229077981 
-0.3405248855066684 
1.536781484794154 
1.133926722991771 
-0.3089527081972308 
-0.520151291597638 
-0.2122444965405816 
-0.2102248204716456 
-0.754244409494792 
-0.09786739760812052 
-0.03704655377536088 
-0.4911036426739234 
0.8025088300860234 
-0.08952506823232727 
-0.3197247486115075 
-0.4254887279204094 
0.3512500052205644 
0.06006950854533322 
-0.4526878339369982 
-0.9888922506906384 
-0.5071894809335433 
0.217470161863544 
0.5553609366184015 
-0.4734998008930288 
0.2625600474600802 
-0.8322185357927819 
0.3525231966861984 
0.3381446245781843 
0.8369437765370022 
-0.7927940266571352 
-0.2914378357983724 
0.6725966622886718 
0.4693859275060771 
0.0929199497075095 
0.3315724711265591 
-0.5058534727920801 
-0.2162652291715605 
0.04911387589823078 
-0.175514283858318 
0.1789094635434555 
-0.1095103218063274 
-0.1323364795180892 
-1.086475469499074 
0.435122094887774 
0.5191838015702492 
0.1056079032081507 
-0.648787556929912 
-0.464231793691594 
-0.1567217536023043 
1.316474502966079 
-0.7018471326115828 
-0.2342140535378048 
-0.429241425198355 
0.1932004525481621 
0.5161622524987055 
-0.2038262152597363 
-0.5153105905351136 
1.01262426339826 
-0.5617621640131311 
-0.3298027026380333 
-0.1215161112583909 
-0.6242123152943575 
-0.3202594918586865 
1.531543282681548 
-0.2617466666179384 
0.9337801533996896 
-0.2449650286935504 
0.4805095148639776 
-0.03690035902408384 
-0.05885726565073929 
-0.2928111901700537 
0.5024710213255209 
1.091229027329333 
0.6620330827865393 
-0.1721062541638627 
-0.0506538322300645 
0 
-0.04908976239074607 
-0.005789223842604444 
4.336808689942018e-19 
0.2503999651661155 
-0.8635958698978272 
0.1174798106867359 
-0.576667326491581 
-0.3959833921194023 
-0.06550229737551257 
-0.4098665233899018 
-0.2098463292708308 
-0.479506745140689 
0.4677197263951829 
0.1048822366411792 
-0.07672925850701219 
0.342423896802735 
-0.03759862518404362 
-0.4365841048377817 
1.042369915490581 
0.0239786288446928 
0.9340338028713306 
0.1042165417758332 
-0.1058253739369608 
-0.3311182854213661 
-0.485258950236974 
-0.654619154202483 
-0.4791574817962551 
1.461111337575473 
-0.5534994971581745 
0.1048241897364553 
0.5003235740628693 
-1.104523299764366 
0.08073847240090998 
2.151620436688231 
-0.04743521516395958 
-0.2470739561222564 
0.02331051091501622 
-0.1077327464037892 
0.01627769729832137 
0.6765092606379987 
-1.445613162642354 
-0.01595800791679929 
-0.6997348440164763 
-0.1199570307766195 
0.06041006680155648 
0.8198624838006068 
0.5955624531847955 
0.04063423494621152 
0.7770524518599786 
1.159736018340908 
-0.347663277657173 
-0.07235652557162631 
0.3892834575376987 
0.3233459564241398 
-0.830942218623417 
-0.08884304933581101 
1.867950719015138 
-0.6575487170503427 
-0.02202280649746681 
0.07652289576442389 
1.005652224018304 
0.3302740324506602 
0.1999793175117775 
-0.5636516223629388 
0.8537008715710167 
-1.256797086474765 
-0.3307069102787292 
0.3238183110064813 
-1.834068224535067 
-0.7142936468651869 
0.09612181380206411 
-0.123278693360093 
0.9837701643587358 
1.290501487548243 
1.479007053872908 
0.1176808951511674 
-0.1036825838039608 
-0.351118771036556 
0.1966222474902981 
-0.4458757901317061 
-0.2701348314173946 
0.4235011341447759 
-0.3496389381925901 
0.534079583101806 
1.086027126595551 
0.324442371671714 
-0.4007272922396713 
0.2501886038911058 
-0.1393031215733783 
-0.3987750737686735 
0.07443583109505064 
-0.02662112150177622 
-0.06155451040325526 
0.5264674660242344 
-0.8578933946477255 
0.3283991271551265 
-1.164509811633917 
-0.1040593827483588 
-0.07865417633021191 
-1.106555534513527 
0.9531358633484597 
-0.426514273998182 
-0.9991049674295114 
0.1812727195897037 
1.093140736383438 
0.4095631427398915 
0.1034599109357708 
0.1689652456798373 
-0.2961775050171587 
-0.8813129818860937 
0.2091520618711493 
-1.01198651007963 
0.2715716076669257 
-0.2992358484243999 
-0.1232235977977584 
0.09516176102698568 
0.4286830269201269 
-0.06780661367551113 
0.1211521171010507 
-0.605364396404289 
0.3501638397797984 
0.3098676894131104 
0.2483710237648451 
0.4043100844922071 
-0.5263899281294022 
0.1181948202213602 
-0.2837580750960655 
-0.06125247032753302 
-0.1728719165391485 
0.127684167222444 
-0.9326443413481522 
0.6529842963846372 
0.4418296916356197 
-0.9605670553299906 
0.1196096744321952 
0.1389030768299226 
0.8095841083905658 
0.1313688413176639 
-1.532097861077039 
0.070219763528153 
-0.2556258451689048 
0.6754798879853839 
0.6861262909566365 
-0.1759047981558056 
0.3493636899306977 
0.01462764643466984 
0.2133483575754464 
0.429160949126117 
-0.5442154370030974 
-0.3876292095391585 
0.2531858694001163 
-0.0312374549742551 
0.2707292440959801 
-1.075731693602312 
-0.6611711092524905 
-0.06408418961571842 
-0.175607005895289 
0.4282755071672198 
-0.7487142802364718 
-0.04279401860067718 
0.3829121336112223 
-0.004858950154854347 
0.2324352478928112 
0.03054736576348199 
0.3517628081553134 
-0.3587821460129484 
-0.5167339500967962 
-1.569025108247158 
-0.0183340774158261 
0.03214219790408577 
-0.03966236211749265 
0.5421349358384278 
0 
0.04669453835026308 
0.1261075558976048 
-0.3803880448252087 
0.6727741160727818 
0.1269212186176591 
-0.04523264057435359 
0.4795974080163925 
0.7774673507687357 
0.2885345491676805 
-0.4446201506626203 
-0.02678749323768879 
-0.173698704533691 
0.0847994350108576 
-0.451862469754152 
0.5519768903567809 
-0.0646254873311103 
-0.6077165338537315 
-0.2602537611270856 
0.6990796657011003 
-0.09735675699869925 
-0.6947668447863586 
1.159471100123062 
0.4521962978461966 
-2.190949346803291 
0.9091419563744588 
1.44275428448586 
-0.07638478308575662 
-0.4724657616428655 
0.7172291859495992 
-0.5965882668314827 
-1.015043680213622 
0.4844189354769305 
0.1735842860090255 
2.568078397704848 
-0.5900798268137785 
-1.320288390082655 
-0.07948609530225827 
-0.1211902957146151 
-0.8937884123293035 
-0.2497088990542956 
0.5162289373461074 
-0.7973950676423162 
-0.2172774970198302 
-0.7624088245341427 
-0.04498976559165236 
1.516252619990946 
-0.09761828734956085 
-0.02887991394718701 
-0.9291317169261519 
-0.3032787086067842 
0.3126427052001999 
-0.39536865316278 
-0.07686850253625986 
0.04059264329585863 
0.04097436429162335 
-0.1633248752244065 
0.5385187893439045 
1.208539605968297 
0.2284782874306424 
-0.7088736537461705 
-0.8519960518618911 
0.8956299637134347 
0.5225594985136101 
-0.9786075753838001 
-0.635935960111172 
-0.06705549021026171 
0.4319085095543392 
0.02565827084547444 
0.2446440874794064 
0.9567122660604868 
0.2795768854298409 
0.3681560033177833 
-0.4333844475208035 
-0.553629432799614 
-0.3936032547289164 
-1.070339631376783 
1.054123755686409 
-0.7014732998174711 
-0.1838764806606709 
0.123694522350219 
0.2508842753169298 
-0.6772733000279383 
0.6742691021195687 
-0.5486484188719194 
0.00468997999527428 
-0.08341900465708768 
-0.3257847865444354 
0.02825994532191964 
0.05478249777016021 
-0.1702472608321459 
-0.02241840173120457 
-0.01412524490262599 
-0.9014098738144571 
-0.01172852650806282 
-0.530072345987664 
-0.02717832069366716 
-0.1301157694991061 
1.058620952939161 
-0.1513025904616724 
0.6318294635860571 
-0.686837327467564 
0.8847856645590222 
1.734723475976807e-18 
0.1478703233666088 
-0.5538673907021476 
0.9559967824027279 
0.07531993245107019 
0.2637645446647264 
-0.544751847692462 
0.6728589392311582 
-0.2081300960947835 
-0.1869103574046488 
-0.4194179868759566 
-0.1816527225739719 
-0.3076649955460131 
-0.8949412167246205 
0.3875865550209717 
0.506259675715111 
1.586742740236244 
-0.05218354166882868 
0.5335645342359753 
0.09276192755564514 
0.007344525360932093 
-0.4427908975645779 
0.828365324190416 
-0.04262344629922118 
-0.7042787612811392 
-0.01660301129501982 
0.9869819418130036 
-0.4924054359159125 
0.8754987929398468 
0.4951065802564986 
-0.3317320960660905 
0.6422768532647724 
-0.3860090618091447 
0.798618421386637 
-0.3371727532267672 
-0.4557012871502202 
0.7109549179143719 
-1.244680944874165 
-0.4132090722807575 
0.09312726982211375 
1.545686365000986 
-0.3097126111442844 
0.1332139914632957 
0.2741731666986248 
-0.02931394525831607 
0.2017939891572244 
0.01229194089598459 
0.1018385017212236 
0.2603140112151254 
-0.3628429564851845 
-0.6123227264616491 
0.2736047365564873 
-0.6306845732188783 
-1.262406719315588 
0.2510613819509065 
0.2396187021605885 
0.4899230828146778 
0.9796231073739177 
-0.009492875564667489 
-0.7123413255259685 
-0.5606484818308776 
0.529627874525612 
-0.6403452160472396 
-0.8278381876667648 
-0.3353203766926378 
-0.1325933555923309 
0.02563078241124932 
0.5728533768607161 
-0.06170377415789903 
-0.05239902988498311 
-0.519104345722696 
0.3322821968216792 
-0.5178725101121663 
-0.680852080917814 
0.2381294972354477 
0.3726589504118769 
0.1549696467310276 
-0.4175728689382747 
-0.03407671647805747 
-0.2267687026207145 
0.01565613336126379 
0.7713038646359655 
-0.5797060012327139 
-0.5504852518644124 
-0.8380420459985336 
-0.01198857543983656 
-0.9989104102143012 
0.1357198427518635 
0.221904934892427 
0.866451886420127 
-0.4243670600333769 
0.09514972580314456 
-0.3819399995523775 
0.2671664135730359 
-0.4200299032701083 
-0.3776887447873396 
1.792664104971842 
0.2097204710214548 
-0.1608888656045444 
1.941624433285027 
-0.4032808841370456 
0.9270373867248706 
-1.130857027095393 
-0.3611941283157086 
-1.459587651260015 
1.035925726631673 
0.1730785327265186 
-0.5220595881623933 
0.2916068584986664 
-0.09586557852844138 
-1.41867118942945 
0.6086879927570342 
-0.3506569039946381 
0 
1.095725104620495 
0.3563139631324776 
-0.8511855211569707 
1.323436526013418 
-0.1070255464506934 
0.7267047885199184 
-0.2714259335220865 
0.2531838544364773 
0.2522233598076705 
0.007737544245090838 
0.07099423207117202 
-0.6451708644196401 
1.144551965823811 
-0.139530970804824 
-0.1658814672270609 
-0.3306725676337523 
-0.1968063232387071 
0.7343184715629236 
-0.3057117943608025 
-0.04752891338371761 
-1.135254487419884 
0.4075822551086636 
-0.2842286224796899 
0.2862546924320085 
-0.5584578869402609 
-0.6135560444932284 
0.8642253433849237 
0.09406923870749236 
1.009124902140256 
-0.417346591327911 
0.2078556738685965 
0.2303930458874301 
-0.3219016198697126 
-0.05555367521980971 
-0.1925686619297327 
-0.4111186891595486 
-0.4173310076187247 
-0.6936288939842948 
-0.1748531755042899 
-0.179703847903421 
0.002635738120620248 
0.3613765724674942 
-0.2529850010723125 
1.613363829700788 
-0.2553263851027125 
0.231641720012934 
-1.101648568027376 
0.4893633948711726 
-0.3249373928795516 
1.126200860862285 
-0.007917529533863958 
-0.2913932390335437 
-0.1017188979662462 
-0.3347032202141253 
-0.1092967892649595 
-0.2237621253963767 
0.141554577642184 
0.1540665825378713 
0.1344002938226585 
-1.252872093670334 
0.09363220433087524 
-0.3275484271492025 
0 
0.230420847844219 
-0.4495663546571904 
-0.4862446790026155 
-1.304121212601748 
-0.2976187891170635 
-0.2477820526961476 
0.1291950279957488 
0.4517332300176299 
0.1522468987810939 
-0.03808574818214533 
-0.2434360065579155 
1.105221956562569 
0.06375159805936848 
0.01688454247994205 
0.2843719225978714 
0.5166139379415491 
0.06063816352716253 
0.4402686024490769 
1.156385335532563 
0.1357312736147784 
-0.3261126192849644 
0.5962904746982413 
0.1411712746811576 
1.187130890947421 
-0.02466469432449493 
0.3182027764419305 
-0.4735332822166762 
1.229032461500047 
-0.003335186305688022 
0.3333699042487323 
1.556600247618825 
-0.1991531299366196 
-0.5403318448779663 
0.3766376692411234 
-0.5903245732241655 
0.05655309883081386 
0.6567959489107041 
0.1860782456062832 
0.07695958063110227 
-0.7077603018523745 
-0.1455950562487107 
1.061807304491817 
-1.640673822395937 
-0.2024379999963404 
0.4718549742038848 
-0.4973112566750235 
-0.1341639154203106 
-0.02395761741596659 
-0.07321484571929131 
1.699620389420734 
1.040388089338761 
-0.4999822891940871 
0.2898944068748728 
0.602883492066884 
-0.3004008089312815 
0.5144538731728134 
1.02486718649271 
0.7308944320888313 
-0.02083958286412266 
-0.1731156068325018 
0.1872551727621601 
-0.07415800084848041 
-0.4859686047302236 
-0.02602565578570098 
1.296834044457258 
0.4384826102223774 
0.5126299111679501 
0.2311039813275823 
-0.8802266158940295 
0.6204869205226432 
-0.0128320052730439 
0.6901519068825364 
0.758276778023192 
-0.9485911198380234 
0.1906519070391417 
-0.2704043946745667 
-0.7682671531634361 
-0.4073232302471261 
-0.102953596655493 
1.17728659054831 
-0.2694070382074931 
0.42675499708966 
-0.1617191183387429 
0.1581008679179542 
-0.1826797865985126 
0.3739383452281919 
-0.3502366988443445 
-0.6535416472282964 
0.3607919438597985 
0.3380436772393203 
-0.3282301339572373 
-0.6897221941696343 
0.1020483093062533 
-0.1954464440561214 
0.7718749633046096 
0.1891982500872489 
-0.1998452034336891 
0.3757033468349111 
0.2188501237885807 
-1.142500458335077 
0.04687283035810024 
-0.348790281786947 
0.5485640615111909 
0.5307632269493768 
-0.4963350782852923 
0.2620912692245382 
-0.8059245017689984 
-0.4759999049330437 
0.5562220031131586 
0.07170918355173077 
-0.2215312034376834 
0.3067627406484899 
0.09088850554407693 
0.1055486575350179 
0.1469587999967808 
0.2489323732860285 
1.177856344492282 
-0.1540638637813143 
-0.7215074450725143 
-1.213165305981131 
0.347772511461264 
-0.0915775272719994 
1.084202172485504e-18 
-0.3507002469567692 
-0.3879232995440822 
0.6338591529926109 
-0.08357043386020899 
-0.2865475549285978 
-0.0002657409305385812 
-0.6788355959172525 
-0.4900556964739795 
-0.3657609801157268 
0.187500557901522 
0.1775758809714723 
-0.5295286424943098 
-0.6504145881849339 
-0.3557011438742699 
-0.8584606447833145 
0.9633996182179098 
0.6171441509420699 
-0.1061799494033698 
-0.3050950759419748 
0.1053466412321598 
-0.6195234433162861 
-0.05461641859599575 
-0.1367100175192167 
0.3985351987250916 
0.6477170048635696 
0.2730714574799041 
-0.1927376049022468 
0.188197332638034 
-0.2557236876327814 
-0.02181734195428565 
-0.3551896211006171 
-0.9819841699303031 
-0.4572715249579463 
-0.1757688266958659 
0.6278443989675884 
-0.7772872847476314 
0.2112433514467489 
-0.2213784371684311 
-0.2964052371379462 
1.119133637039919 
-0.1432297992669362 
0.290298627773979 
-8.673617379884035e-19 
-1.708395004865287 
-0.3291221850890355 
-0.6704564967390726 
-0.4063585367519107 
-0.968778750176009 
-0.2632692891663464 
-0.009939344195403389 
0.7646942584668248 
-0.2828325674495267 
-0.7975002108004003 
1.703341029668108 
0.3368513731512368 
-0.2548315949663232 
0.0671119335658892 
-0.735528260223824 
0.0146672345164227 
-0.1325880996080598 
-0.3712773866982511 
-0.09629656929446723 
1.143130564503057 
0.02565131671943767 
-0.3959341268552756 
-0.1472874634128855 
-0.2550412011818501 
0.7174566561600121 
0.8086266408598418 
-0.133777492150188 
0.6854002965137516 
0.1614769089104347 
0.2790344124642232 
0.2743659759495579 
1.415828756037497 
-0.1361056685498833 
1.516315257933641 
-0.4969815849255412 
-0.03780986709043521 
-0.06834892628450993 
-0.08339403396272255 
-1.80480542543997 
0 
0.585513689184781 
-0.09834542023996411 
0.6377201063510233 
-0.2528810805154643 
0.04249061343295932 
-0.1349941644455691 
-0.8676728966409424 
0.05786770214835748 
0.09287596552242729 
-0.3287407631869179 
-0.3055248227740061 
-0.1127424372017057 
-0.2076196514313589 
0.3857863702371281 
-0.04446832605627871 
0.1807630667776805 
0.2866779259676167 
-0.1780941096437143 
0.738220777747567 
-0.7628551047706125 
0.08559450641992908 
-0.353794506409556 
0.4695380262515283 
-0.3015904377120385 
-0.2454881306110819 
-0.05688030814601937 
0.8820998866012437 
-0.05237078437929922 
0.2596009480761969 
-0.17866420281603 
0.5168124036245131 
0.3407692342370113 
0.01638107547432562 
0.2269175412687926 
-0.6791175049425642 
0.4188685817960434 
0.2937397229184389 
0.1217163345079931 
-0.2166656530674142 
0.1398351782128598 
1.071169639930178 
0.1815037173430444 
-0.3371877818743612 
0.176744610495038 
0.3596635416835893 
-0.01226150720623288 
0.1922245924186924 
-0.005512475496608866 
0.2242984625038808 
1.181247211972582 
-0.6623142259731427 
-0.09058794052501322 
-0.195725935714235 
-0.04093887295983576 
-0.009060130353184785 
0.07726610954905869 
0.4152956813317713 
0.1162041501347294 
0.1386526386474412 
0.5013198996664653 
0.02234892587923492 
-0.4843691753099238 
-0.2002218096965864 
0.3178206896581499 
0.6146481946277715 
-0.1889461647358201 
0.6912799142824031 
-0.4476897887411484 
-0.3716756518668251 
-0.3941231780306129 
-1.55036170127956 
-0.1574165668207902 
-0.01701225247121286 
1.125753050822858 
-0.5394546873824427 
0.5700701043086697 
1.002099049369175 
0.1915674254590838 
0.2041134438549238 
-0.02765177096279366 
-0.2721391187905911 
0.3745724318813441 
0.193225843812429 
0.2352306460359985 
0.2730019740056552 
-0.2894834158016864 
0.06716724483361745 
0.1485602679662089 
0.1265031545683713 
0.8919300497123523 
0.5180788670354464 
-0.3292002490907557 
-0.1604914423479734 
1.155361282681036 
0.6006997189206239 
0.1086766992622328 
0.2437026268394741 
-0.2089225069645214 
0.2405438148049096 
-0.2917588165029563 
0.9077554244797289 
-0.7289115696860113 
0 
-0.4773619352182673 
0.06610086614473884 
0.2590826041862516 
0.671961281417442 
0.2734495455746509 
0.2628085038103234 
0.9163722628109076 
-0.0533352646583645 
-0.3038024817485792 
0.760156818014539 
-0.1569140631246701 
0.0435561350636935 
0.05892906610101174 
0.0593025353410928 
0.5527807739801054 
-0.1884340761566933 
0.6063924600478151 
0.2091231643572767 
-0.9936078350317527 
0.24948797883284 
0.7817374753699053 
-0.9666254074920906 
-0.1013001849400862 
-0.6270489600899555 
0.4376986007829558 
0.9788965505601028 
-0.4371765245637332 
1.436174972620764 
-0.4671948627862878 
0.7542574779330794 
0.5172762940439781 
-0.7524718791816664 
-1.777865042018203 
0.4421253893459511 
-0.1885989976273139 
-0.1470932674222922 
-0.7979392047301066 
-0.5415410077749354 
1.138890607083781 
0.2771840594782011 
-0.3460666049381289 
0.2030254940800415 
-0.1350343051113551 
-0.2850189221271024 
0.9154234495862312 
1.233039841113676 
-0.6183825580161374 
-0.6182706936421031 
-0.03752119447735772 
0.4458351343700056 
0.2134447638967025 
-0.08658983451330829 
0 
-0.01641167321831623 
0.7711501244403399 
0.1668064488364829 
0.1779637991401254 
-0.5053602857999047 
-0.03878107021416436 
-0.6703862149029077 
-0.4044287365704816 
-0.6894451160515856 
1.247813470971508 
0.08072232496577716 
-0.7679398532017178 
0.3506618806233106 
-0.607771989618006 
-0.03021617669466133 
-0.6164261399683387 
1.052319224881866 
0 
0.2603034901846823 
-0.8342508775516027 
-0.3072918914432363 
1.176074055492469 
-0.09960245234886797 
-0.2003462986215734 
-0.6114379649545943 
-0.1750340392098681 
1.494649463143898 
-0.5978232172582952 
0.4071284037844131 
0.08462638814252178 
0.1867667780117251 
0.3119292176461965 
0.3219500859088796 
-0.1737304920170144 
-1.765364890939144 
0.8650226967692179 
-2.155413644452317 
-0.7054680889141816 
-0.6311746402466857 
0.5667361354178385 
0.4358889427452348 
0.1400837795442056 
-1.184422998696334 
0.8046413986106465 
-0.01871355543588024 
2.083733608070361 
0.382116731157014 
0.3797408699899429 
0.357975455606477 
-0.05012695757548986 
0.205499452896803 
0.4614164090048902 
-0.1277600499539473 
0.1946773856853722 
0.1263876159532409 
0.9720166859597047 
0.4102409215065863 
0.3364969885221419 
0.7483653016622822 
-0.5176622562749241 
0.05921187605180461 
0.9777274008728865 
-1.092384237874957 
0.03825492527602146 
0.6003020022094975 
-0.9237490878530008 
0.1618929729256501 
0.9615599868117798 
-0.9807216573556202 
0.9015227145720482 
-0.3093807337416096 
0.8990648844786493 
-0.2438221539661946 
0.8488022579665967 
-0.5583526305065696 
0.06437183872956986 
-0.3044889285044557 
-0.5941434488328295 
0.4384939823403667 
-0.8189205013952372 
-0.05941770419266163 
0.09388759094252898 
-0.1877331157270169 
-0.01361416400750292 
-0.03128806584047438 
-1.183886033868865 
-1.568667371115332 
0.3241722680494081 
-0.03726364390891546 
-0.09597037247183406 
-0.3890940318396944 
2.032868391007709 
-0.4780694987895521 
0.8320474808807972 
-0.4269672832019403 
0.5138593901767849 
-0.2802598255699096 
0.1220778007176398 
-0.528758252484038 
0.158223495242172 
-0.8175301080082811 
0.7845838064498147 
0.6733618372818119 
0.4837386603677145 
0.1643699825175922 
-0.09901347588468419 
0.2608559812243135 
0.7264260970413507 
-0.005122109451897156 
-0.6120009249889643 
-0.6425674881801221 
0.684608122440333 
0.04981381113125177 
-0.4436901676743774 
-0.0460845634633504 
0.2006425167075092 
0.2396897063120597 
1.03317659086111 
-0.4199327502680702 
-0.349538513665955 
-0.07545402918280252 
0.8106926436717053 
0.02183659929001168 
0.236820681252864 
0.7018835803086696 
0.217669835156988 
-0.3331157632230494 
-2.130532917914627 
-0.008638564548642525 
-0.5516037295615629 
-0.2781943863912191 
0.02997875916297068 
-0.3086241791169694 
-0.01506535313802821 
-0.404093033192137 
-0.3996722931611643 
0.2324926125858689 
1.256718664324437 
1.674685592611552 
0.207370190288969 
-0.6395426808367713 
0.4941480076677002 
-0.07019703280226539 
0.4926719043869113 
-1.127605425800608 
-1.024841948169396 
-0.300339932175503 
-0.3132199356240284 
-0.1648089738692103 
-0.1549023737441508 
0.8906469227904827 
0.1747755280955972 
0.8354660260545128 
-0.7975067387911982 
-0.08968607299451495 
0.8847589768437384 
0.275893809721831 
-0.108445589444964 
0.1336916004988792 
-0.2487682422930557 
0.6096482547790227 
0.6466189485661963 
0.8604615521845074 
-0.5945150278200744 
-0.8847319800479205 
0.01578644083941607 
-0.3083799663140135 
-0.1399786127131482 
-1.014355405017066 
0.5554528471983883 
-0.1021356935006556 
-0.6280652812693592 
-1.318294087758517 
0.7729795633229093 
-0.1423105770228719 
-1.461185701996776 
-0.0940070871442404 
-0.7544388936485444 
0.7918944189813979 
-0.004500382986049167 
-0.09631306698628726 
-0.6907974167148877 
-0.02087067639471667 
-0.2382995505733908 
0.3077590853832482 
1.1905165866477 
-0.5971973251081583 
0.1907935627830857 
-0.8468331996101428 
-0.05483656052767487 
-0.6458391089735745 
0.21956229803568 
-0.2246192692821053 
-0.4337164909761919 
-0.377650346994124 
-0.356511671461989 
-0.2492838242865957 
0.1418700334457839 
-1.490363546330544 
-0.2499494293862494 
-0.6221447288884732 
-0.0336900571540335 
-0.2996611071395244 
-0.2346053875897372 
-0.5604245839488685 
1.12158011620431 
0.836206905886724 
-0.6406775644649082 
0.2052774193620535 
-1.170324889790948 
-0.05952301359412818 
0.6405747232475174 
-0.203715404672279 
-0.9267643094905589 
0.336876539842533 
-0.3438271417184404 
-0.01639765653306451 
0.3199917666176672 
-0.2543937070495264 
0.5486699243612568 
-0.5381005243021897 
0.04244938295947764 
-0.3051135147904603 
-0.009732795865178386 
0.1681653078650401 
-0.8563138315465155 
-0.1092999749470434 
0.5171310210743333 
0.04604847037979739 
0.5356288668536172 
-0.03351129609488407 
-0.2665742814921198 
0.5587461749515736 
0.8379068754252185 
0.3230310518676779 
-1.408364488433336 
0.6851450645676708 
0.1454196975092712 
0.383651865107243 
-0.7268729375436531 
-0.04944003725741813 
0.09603350492478406 
0.6522464138525753 
-0.05081305491378071 
-0.0845035309849272 
0.06442247785450521 
0.4616709045610995 
0.9867079606455632 
-0.2515158188073634 
-0.04693240989236733 
-0.1468136267914779 
0.3476081563685954 
-0.2135556337572332 
-0.2342938961469629 
-0.2894360162875991 
-0.2471480052692968 
-0.5357690354619297 
1.084202172485504e-19 
-0.06346481077200093 
-0.05485770877036162 
0.6936776288728983 
1.060343273810691 
0.7143906998503359 
-0.4245287643194321 
-0.1462669578159189 
-0.07508347699644245 
-0.07438997728665028 
0.7477558365498983 
0.4360451878582546 
0.4575849179606729 
1.883878319309931 
0.1791071827496392 
0.9270666983586422 
1.246561661418892 
-4.336808689942018e-19 
-0.1273565673682497 
-0.6033904499975482 
-0.005663721405057532 
1.592477493426374 
-0.03193546972417537 
-0.1821998361994732 
-0.1061675270356619 
0.5511647460532714 
0.5019548137822278 
-0.5774258730489039 
1.221914181757346 
0.1009061208291084 
0.305645521410065 
0.7183972502421699 
0.3066577456028838 
0.2763235604429531 
-0.06894449374110796 
0.2017635971638582 
0.3292895399202894 
-0.1003169036444681 
0.7810495143666658 
-0.1044178340523932 
0.7459588158331095 
0.04397130068442023 
0.8618725187100439 
-0.3088881066389674 
-0.418470079687305 
-0.6808280010005742 
-3.469446951953614e-18 
0.2453615349281912 
0.1205864835009615 
-0.01053383764650384 
0.3324886546280652 
-0.07762067502548671 
-0.1435290516024218 
-0.07596999901061319 
-0.2995895514167653 
-0.4360610777857349 
0.941026253882986 
0.5257549384913346 
0.2320328925418175 
0.2931398319578586 
0.5598152050015065 
